779 40
2070 0.217936843819 0.389231711925 0.726308272802 0.479367904507 0.607180616287 0.510291847051 0.520502928266 0.669440892145 0.498438418933 0.239338419921 0.423156231345 0.552200566305 0.446154609819 0.699985710325 0.523493032162 0.592820038977 0.450586762045 0.689976912494 0.493420314598 0.521944527657 0.344763918532 0.591547424597 0.622748692738 0.384922560398 0.45301369282 0.3679356563 0.699864941775 0.597953178821 0.665632319253 0.417878395867 0.630697922438 0.547654588334 0.423759104359 0.384487575175 0.492758122999 0.567875767401 0.575629111626 0.516075455762 0.568082773856 0.478512794571
1116 0.361770270262 0.346078463282 0.633813736146 0.274048584844 0.380708769741 0.466334546698 0.582771599408 0.367245582979 0.586369282782 0.446785419545 0.488169988775 0.33318655906 0.331537478087 0.766724206423 0.689104873905 0.530236978188 0.434207201604 0.526355509166 0.532877917447 0.540989183497 0.666691740386 0.532763545437 0.509867360175 0.410521520566 0.57955525795 0.495512323511 0.533962551708 0.516292886664 0.494328474532 0.535211742657 0.515078230891 0.39123373354 0.557668340037 0.509728531023 0.299226908047 0.588238802914 0.591911880593 0.668506757045 0.855944019556 0.45547247817
1037 0.361874392009 0.550419515205 0.64962583846 0.551951528601 0.49447830662 0.509042285911 0.466161446278 0.355138258016 0.565109484152 0.559659621526 0.431967039257 0.322979008238 0.481241585712 0.469631297817 0.769095090077 0.347102211007 0.0938288117275 0.694857378891 0.491303168324 0.497108870869 0.507448547901 0.425995779525 0.492342114974 0.130476663771 0.475164393662 0.519110562106 0.481216439117 0.490863024677 0.371141519213 0.355943366737 0.435886101817 0.3400122407 0.354168703593 0.457212354662 0.184852439295 0.574895625059 0.479165328959 0.70917448143 0.86134799623 0.523006486745
2483 0.43025524281 0.453368220998 0.596138202508 0.700469896987 0.37998928722 0.678489250041 0.512005191241 0.311697404214 0.815191672629 0.162350910942 0.470013184101 0.49269214507 0.293612041996 0.752780913567 0.411308370111 0.36236507419 0.348130978815 0.497128245677 0.779728534178 0.386462722087 0.295115749657 0.322157021137 0.656585490576 0.557376327508 0.513696113216 0.451514133224 0.677333292955 0.821027725906 0.434495768166 0.26064941125 0.677910094177 0.754118606444 0.432765129166 0.368591359633 0.658505113043 0.560715709855 0.380020488813 0.639795221109 0.489446309697 0.400411720352
1011 0.578080691109 0.571122013899 0.888460738603 0.151528462213 0.519002097374 0.636322369546 0.38261387197 0.604010259972 0.621106000953 0.260610977497 0.356300686075 0.6228812546 0.328429942274 0.658456486512 0.590697485916 0.513057704313 0.518734980639 0.609035857229 0.62119240736 0.360950535682 0.44086073946 0.672690748761 0.597766700027 0.349248104119 0.366728982992 0.529089017004 0.527465734283 0.795336504748 0.574258594998 0.575360477873 0.555383321218 0.331419515007 0.381652882996 0.445341090284 0.546437521167 0.574798401017 0.537588507586 0.533159914509 0.736086489644 0.38642676026
1705 0.368034387903 0.491176807722 0.681888869484 0.791978755371 0.443479802608 0.686764231802 0.483149471923 0.610207237318 0.612717088492 0.383088425064 0.214883860328 0.437226015535 0.496215689076 0.744642372315 0.179421367047 0.315763018888 0.638959927378 0.282306673283 0.468017356062 0.426639478627 0.353007386001 0.444935133026 0.504977460184 0.66367153974 0.552365864703 0.507278590126 0.760128297085 0.783505346625 0.33152181574 0.363161024383 0.322101182077 0.734032047696 0.429785035417 0.563805837679 0.701108171903 0.642818595437 0.612765230893 0.682634102248 0.681875834485 0.64229058771
399 0.461397083765 0.212693713569 0.407562911762 0.925179644115 0.586021161947 0.420107571369 0.530794539306 0.657848127901 0.708102930688 0.168481091502 0.245972304038 0.564274928102 0.360613080767 0.624727138664 0.437293167503 0.324138324266 0.538945434431 0.882717211224 0.490889558799 0.376072296871 0.405113330457 0.551975426822 0.677880446396 0.337970970258 0.443327222874 0.55680698204 0.598838229345 0.530802815744 0.688637621615 0.526416541999 0.489570843316 0.634454327955 0.153511492761 0.616781071036 0.237360082346 0.564366073412 0.289943261749 0.847034951942 0.528095475182 0.489153870223
1304 0.538323291828 0.597663903862 0.746879114743 0.704916036955 0.442635992012 0.429000938411 0.593894750453 0.535174627565 0.873579618168 0.500663044674 0.586389323192 0.276433237223 0.485925135839 0.649377113086 0.476607431885 0.575639595489 0.298390321645 0.842962633423 0.455576441473 0.303055440201 0.573781210581 0.382821609593 0.65096288478 0.649376452726 0.33485783106 0.50335222519 0.885412164589 0.673034219429 0.419683487185 0.180283421271 0.633807412107 0.672981129319 0.54051938536 0.372845418656 0.47752120764 0.582816331572 0.541876565118 0.526837393947 0.3972180075 0.262846903585
1055 0.304164987839 0.433175452028 0.671186229385 0.802877418659 0.498790527759 0.409167189819 0.473858926601 0.447844868701 0.705198179454 0.206636261234 0.799674752817 0.533029019148 0.306795536432 0.641121682295 0.675661528635 0.537908176617 0.392394667506 0.666835072476 0.291131385194 0.679684183324 0.48361749297 0.45213769805 0.681020199067 0.329999399996 0.254833554299 0.488507818626 0.767941463138 0.542361697974 0.686236569851 0.454241824596 0.677969482448 0.412543679604 0.558610383437 0.579351521001 0.479948231685 0.838952131484 0.511518682178 0.576942791013 0.578353522608 0.359241639251
695 0.455866832711 0.323959985792 0.779664064636 0.474394315028 0.656496173095 0.466164875768 0.68885089871 0.879425689645 0.656099238178 0.27935011474 0.330350793531 0.487005669218 0.32317736835 0.603390939775 0.596526113089 0.549240848145 0.49452669902 0.694359666178 0.418509756492 0.849000183854 0.490597079656 0.401447214996 0.402935102181 0.469095898845 0.340380425491 0.497675281579 0.530051689479 0.589144347321 0.740410750572 0.390172331967 0.590273804986 0.409038729561 0.358538683623 0.485263905894 0.831738885618 0.697394865349 0.427439832354 0.326286768 0.653770898353 0.425194569375
73 0.266388556401 0.735804338505 0.627737704315 0.489987797758 0.325427023315 0.492285845921 0.68282335093 0.417903068027 0.379864334979 0.477665062469 0.611716182093 0.339110700757 0.0801400403886 0.149172199152 0.271552320791 0.603582816632 0.380888582112 0.249299735024 0.484165840328 0.7162255253 0.513551381011 0.375648699398 0.380174998884 0.371224216147 0.500730331174 0.378754826998 0.698366233271 0.625041740408 0.602363587212 0.564814310705 0.446885210491 0.565894801662 0.354747752638 0.267179023255 0.541797637328 0.672951472991 0.589858913217 0.929729532457 0.58778520331 0.657808263278
2638 0.375482189872 0.449446047472 0.61287436261 0.399523462338 0.474389507084 0.549193736793 0.759492471598 0.355958146852 0.54260406085 0.512106633491 0.452000326773 0.364437891924 0.302722173526 0.467412682944 0.561131944399 0.693291539167 0.499792217161 0.468770328397 0.304309090305 0.654335536576 0.666601089246 0.465683727683 0.550193385204 0.379006654823 0.522125544258 0.544947163499 0.573776584136 0.649364839421 0.325797507855 0.541340258234 0.543304699166 0.635208704619 0.623561087005 0.433263432535 0.451280707336 0.60576801592 0.416449131123 0.810778947698 0.880169374667 0.485279947123
1857 0.393270195637 0.617920353669 0.599068646263 0.415627101151 0.395988035838 0.551097705657 0.990415093688 0.424377207564 0.595120222688 0.495998830518 0.424177888408 0.262667108797 0.25721086327 0.485742620098 0.562104904444 0.505763998439 0.570846107404 0.509167309821 0.299312525656 0.642777191361 0.630605698402 0.362159013941 0.482656874717 0.414560784283 0.534402483732 0.547565365888 0.654176222181 0.506542327342 0.408791201218 0.525523397698 0.5013587886 0.419426598639 0.617227509803 0.335067860234 0.464610382457 0.572519976723 0.458964293428 0.780068956955 0.945886319584 0.444008499182
483 0.655720118386 0.331850466073 0.874943700551 0.324426757496 0.431144525623 0.610530038933 0.512799489218 0.673516194106 0.439083265744 0.211753841614 0.242534546133 0.486511600386 0.548178155297 0.463903710457 0.699678144018 0.579819499493 0.478237434956 0.350543446447 0.575966023733 0.44183992399 0.492237892838 0.691073184561 0.801285378346 0.44118268546 0.495036513924 0.689511483734 0.447887044845 0.657725122075 0.861567540662 0.365653223645 0.655143086892 0.387535581148 0.382447705775 0.309203630056 0.591094097521 0.546065878447 0.609819745145 0.59297409373 0.49831920301 0.454334482727
1184 0.619328535671 0.553619123497 0.508355297778 0.50540661688 0.330951676887 0.0149281704645 0.457191182399 0.517387489547 0.717458482021 0.434812492063 0.405636732016 0.569218081834 0.152425736341 0.598256945496 0.605797917141 0.401500905719 0.676089949356 0.128417084454 0.362051901003 0.331584110425 0.537603415316 0.710077185591 0.403579059194 0.373793144828 0.531469831988 0.508163422386 0.358739728679 0.354811448944 0.473435721824 0.6310851929 0.622447212723 0.515614743592 0.476744199114 0.497407183275 0.396186185586 0.265352357307 0.370996655245 0.892760562435 0.345510365063 0.670660601591
691 0.760978060103 0.612231249177 0.537160221337 0.582930627073 0.349089553918 0.146265477578 0.543393368476 0.62093774549 0.872661609848 0.584842977034 0.464321727486 0.5055862568 0.23180939882 0.619834639886 0.638338849818 0.43295296548 0.509030775889 0.218228412912 0.475721804556 0.323030163553 0.559003697134 0.667872135492 0.495159096738 0.292607107174 0.607932410715 0.517012996521 0.459734182503 0.478601298191 0.482121796757 0.598017341819 0.490257943056 0.475366871122 0.464234941634 0.328912514449 0.49856643165 0.255877475162 0.502277118491 0.977321953253 0.33478637765 0.7255061686
2284 0.269344965079 0.23704837904 0.532644488514 0.486477578035 0.808271151119 0.733821028493 0.422149711166 0.77576016642 0.535880815901 0.463785967259 0.358497790101 0.309939683663 0.889962601819 0.35875514071 0.420563905837 0.568514606272 0.432888925086 0.60220566582 0.709618456867 0.340618133617 0.397843605017 0.00328931370421 0.674242802433 0.586589657502 0.386023950648 0.263955663271 0.212290265571 0.751275972166 0.568846596129 0.289839002972 0.403414750393 0.59609751735 0.329274651868 0.580397789572 0.526276108953 0.679628932936 0.676132867908 0.512299474302 0.79009580395 0.275090308084
2427 0.334182726881 0.284685607706 0.587625208825 0.31580736783 0.597959461569 0.644818445579 0.503305155518 0.282202944736 0.617868798751 0.589697807962 0.485750689102 0.209615111998 0.289971500383 0.576707830456 0.618552855362 0.871429720156 0.551026432051 0.527281891212 0.313534664735 0.82954925025 0.696848261014 0.688395649992 0.605643683635 0.466323164576 0.509522754591 0.648826095418 0.566419646939 0.645492613874 0.460517969359 0.488426969187 0.434222729069 0.537736753948 0.588729643378 0.469927700626 0.349699734549 0.588518967847 0.468303047638 0.708047030977 0.836943178714 0.345359755801
2666 0.368480961058 0.488484947973 0.816001624641 0.627798768155 0.662436188382 0.503366401762 0.573569541145 0.56240232163 0.66460816288 0.367701948871 0.514425738671 0.38537146999 0.62118239513 0.414665778802 0.345770135407 0.510850644822 0.340724905385 0.64954330806 0.490449846194 0.612435442335 0.787609890398 0.405926577014 0.656150727146 0.770456537562 0.363990471582 0.62125299507 0.563128281614 0.848232518475 0.531890446884 0.316258333557 0.785130730624 0.26928925771 0.528813660275 0.544584613711 0.560886691229 0.34785869918 0.603075364975 0.443206964385 0.442739075263 0.297289157583
709 0.204901568079 0.687332466331 0.626896659489 0.62562878899 0.428608731445 0.385118293267 0.427391899054 0.773963464295 0.313617578437 0.673232111713 0.598471303789 0.303024938889 0.433118516761 0.477068787635 0.371561996164 0.492573689266 0.460004648872 0.338539804559 0.602497940498 0.703133095824 0.595566966394 0.313365846889 0.695902262223 0.676150963528 0.33172445349 0.54688046567 0.245020242275 0.723843533833 0.348077326084 0.573216984667 0.504308907213 0.666079777551 0.531091646522 0.479156232491 0.165312000935 0.771036910849 0.576115064239 0.491508114874 0.398426348274 0.287597754883
859 0.307462668077 0.666659119308 0.538778830488 0.758616622718 0.646014599668 0.291181679716 0.221370786698 0.742856919694 0.274841111757 0.621552750518 0.489833380332 0.391819758562 0.455015944773 0.469007696419 0.659253637755 0.347741989248 0.180383832952 0.400151114946 0.643972938564 0.435721586592 0.471176519536 0.291295536474 0.602194630857 0.169015159223 0.419746943212 0.481313393945 0.253261328613 0.669404409328 0.469378837102 0.423153338509 0.426469427444 0.712048965531 0.476421662334 0.365049862507 0.0797298148914 0.687582517145 0.42312784202 0.651287069414 0.592143744952 0.559775048662
1366 0.406317269875 0.459899610698 0.680963949969 0.681001649101 0.374381436665 0.503683555885 0.506415609713 0.594777043018 0.706217714717 0.405230688807 0.702204928856 0.451384637763 0.384902830106 0.69493631092 0.533835691622 0.701339937747 0.435824695528 0.643887154299 0.41342742458 0.465371892007 0.436854455049 0.536262518786 0.496038924798 0.41741732341 0.284621319664 0.511803812538 0.674042915138 0.585582285114 0.59702833429 0.327748370735 0.639574338955 0.535438465222 0.587803333479 0.50210123034 0.400459223486 0.551597081024 0.643416144718 0.622796787483 0.50098305189 0.349660396659
250 0.450301481124 0.455983097691 0.602115423062 0.531176935273 0.304246068631 0.564988012096 0.52564918069 0.216487339652 0.778246387973 0.156321112741 0.389995930104 0.489781478089 0.116075406549 0.486540555525 0.278622763498 0.257616007322 0.296530266865 0.588758416913 0.606000103791 0.58485483927 0.413111295904 0.402551560852 0.79996154219 0.599702672103 0.534425664667 0.475297598375 0.468906160044 0.660903172528 0.432316809774 0.00633221515456 0.63279305042 0.533490398424 0.504602892042 0.605261180155 0.64502967302 0.454273231497 0.572330762989 0.645485261518 0.47022638872 0.302617633776
13 0.336919388531 0.434889740168 0.564814740345 0.479316370096 0.476255674611 0.572087565862 0.413686236806 0.330583250078 0.90557254939 0.468209373463 0.520408288808 0.329859730308 0.393134606817 0.841526937466 1.0 0.427172153857 0.503435182757 0.364148294373 0.441055359972 0.620204604567 0.689604435899 0.349468526143 0.581409980594 0.438047992466 0.39464199021 0.304188310327 0.474770972126 0.427226561798 0.726401012921 0.686548577569 0.486138351617 0.573770016156 0.352205668331 0.405591016953 0.206244527412 0.631565264809 0.711239660738 0.618862767448 0.672840035431 0.430924360552
2031 0.735358211253 0.746665176063 0.984741125943 0.208519641182 0.526511637762 0.778458578758 0.397822026604 0.648813729256 0.687980973225 0.24294148833 0.409376656317 0.510481334972 0.47238327748 0.575314301392 0.595787474017 0.591800428956 0.696167867288 0.612651028641 0.624013093802 0.422483359969 0.339042977457 0.736362040395 0.494349792272 0.284045315928 0.638794138279 0.606309091808 0.62438046195 0.73004615847 0.381308634295 0.59227205765 0.637787428581 0.351439169762 0.390681103278 0.538829155083 0.557598142817 0.811069732183 0.376304191743 0.704075212024 0.633011503333 0.445222702948
1955 0.520623479837 0.445063673762 0.603306041505 0.579293819468 0.3533082953 0.475083562933 0.803018570663 0.407023682811 0.465621327825 0.536743097136 0.34489488891 0.270433900419 0.215690589073 0.576436612433 0.546169365829 0.705123050584 0.577420037752 0.680991066687 0.485378701316 0.624429893301 0.664256558706 0.5109841489 0.399057096905 0.383922119526 0.491995860096 0.499326050676 0.45521501513 0.619728507543 0.416931596807 0.546241795913 0.646228581695 0.44026446193 0.642385378632 0.456795641959 0.474592332203 0.52179485915 0.332904391377 0.699035899521 0.962973091874 0.460892550905
2161 0.292563819551 0.760502880497 0.545026920328 0.575605131582 0.34157970193 0.688096279117 0.832507106524 0.544018965373 0.60693773128 0.541690630898 0.355164117199 0.368501386179 0.305707429756 0.388992949475 0.5133421677 0.530043114855 0.617614824996 0.459644894887 0.213546815098 0.633557257522 0.705233629203 0.424263640925 0.419139416693 0.444355204771 0.518638657423 0.494282694521 0.696825720247 0.419215293172 0.449797030464 0.47279867019 0.388197320411 0.538553597097 0.560069665697 0.302222149935 0.491472112792 0.613255676217 0.393779222826 0.899017586598 0.811676527737 0.468178994788
432 0.368706017411 0.641625757625 0.602969106539 0.40278188977 0.447408756747 0.594654060552 0.550933836409 0.720646547674 0.580137462361 0.520904900332 0.516145232784 0.48345202244 0.276170554592 0.612370571273 0.501142921238 0.502673004019 0.577708126193 0.0189229893142 0.68028232346 0.923864575793 0.522403230597 0.387427597733 0.470798081441 0.960338780323 0.289789877992 0.434232996234 0.175017750463 0.87437903116 0.470375907912 0.678386253173 0.45355248357 0.34948154525 0.781565056343 0.380266325968 0.470073107887 0.794895080229 0.447729010641 0.444788653547 0.669449467289 0.526054819676
770 0.484273486828 0.472156049184 0.786753773787 0.386234501631 0.641557796508 0.590984469889 0.576173503757 0.730042842979 0.694587334215 0.297038254181 0.46079612479 0.627147159289 0.293875972183 0.594118655742 0.575039079658 0.496349784426 0.458986348554 0.618141778479 0.534502523453 0.629489079999 0.492510397328 0.680262219866 0.540609043872 0.389369435292 0.322130707285 0.575449784518 0.664087843476 0.556935521986 0.710310363741 0.505743026742 0.570662895887 0.301067972068 0.377816437239 0.505666844083 0.628742174423 0.703859324795 0.41146439558 0.450116671571 0.764648803604 0.461757222265
784 0.41973776658 0.25370926726 0.838018730482 0.526733216384 0.700339113394 0.420567510105 0.572734127969 0.703491367853 0.619397106283 0.265610622319 0.490248490029 0.471182399907 0.645517242632 0.585314787241 0.462293017663 0.585621656552 0.408778780706 0.605266989249 0.436169733416 0.80029545136 0.574287644608 0.423049572199 0.507058566543 0.581895607191 0.400395867155 0.533273197279 0.651633059014 0.631761625025 0.609758450747 0.360882085565 0.703359095815 0.400009762522 0.402376994924 0.458229739378 0.65119048168 0.505295422532 0.527828594444 0.288767106861 0.617638050051 0.401278345771
2817 0.267301170234 0.431722962885 0.682882439857 0.67156151341 0.378810819098 0.510006277824 0.463959995507 0.784510538909 0.600297812365 0.37866282471 0.389953853187 0.536310977376 0.280574738249 0.439480370274 0.51585433969 0.561679388643 0.352205191814 0.584677652969 0.685639359219 0.596194360196 0.319690474577 0.584682034986 0.525426661141 0.641391186729 0.232427072909 0.215089956904 0.597652231818 0.640720079833 0.879548332874 0.3129693954 0.604628977417 0.917560967118 0.570830537827 0.420852348538 0.407960608124 0.42371247422 0.69032531098 0.583685335747 0.587619636676 0.432315895224
1247 0.688041809158 0.762061221342 0.55097771461 0.438104405258 0.367719757663 0.633490431212 0.527276508354 0.924605493587 0.932662895287 0.53682482922 0.526999600884 0.626980497348 0.650647536974 0.763675933044 0.503019486886 0.322249984283 0.559497850972 0.42575089929 0.593650549983 0.555615440098 0.343551011793 0.874335583542 0.814126483406 0.593644265661 0.824819564077 0.445340957659 0.61533291046 0.73056791357 0.102718341436 0.43885068821 0.460903598804 0.611571455343 0.617412940355 0.84030425075 0.324936352742 0.549064559112 0.824213573984 0.688401695607 0.697464524392 0.294576922898
987 0.607806417321 0.342372238551 0.74005481728 0.4251644259 0.265590008385 0.424083613834 0.613155135691 0.200240333466 1.0 0.303407597079 0.484065397863 0.574325678636 0.220994011933 0.488758598812 0.198097975849 0.220031959672 0.517592491186 0.623214065397 0.593324882979 0.670577390128 0.389910941455 0.410027839954 0.879008982382 0.583621269869 0.624644811435 0.371620788677 0.50753715747 0.659708433617 0.345270303923 0.0915952279589 0.546254817779 0.635710143226 0.798586738232 0.781573558766 0.51078327244 0.382986872876 0.491338660814 0.850360279073 0.381186426847 0.299079564665
2190 0.220539592515 0.482633103563 0.705444443934 0.550997277323 0.457438199754 0.45006023318 0.652514298704 0.538781759746 0.646656379362 0.416460896546 0.414551870996 0.52534062767 0.222094830843 0.320862067487 0.337646818072 0.659978625325 0.182887597198 0.685223726067 0.721270374775 0.63939788607 0.658482714839 0.37993589812 0.875710749724 0.61792126126 0.577421821637 0.585961078644 0.557146285208 0.641228028491 0.522653054128 0.267843963468 0.682123904982 0.245422964659 0.519248534256 0.628140558373 0.611063376735 0.342859175906 0.656310379247 0.332795676325 0.504891311418 0.220840484988
1555 0.506478850307 0.419895591729 0.647038936239 0.496316500142 0.594477029064 0.514703552257 0.601733452548 0.667440637942 0.769111807043 0.249941375057 0.632963794659 0.521262834017 0.161807062191 0.651467120888 0.615604292669 0.454096642188 0.336048463608 0.574964750353 0.48011364784 0.70672685406 0.569185004924 0.703693686961 0.651410062475 0.461234546645 0.258315436159 0.622199465221 0.821238605388 0.551087690818 0.643133853389 0.444540997395 0.501602606268 0.384024145515 0.333454706059 0.527650261946 0.549148389695 0.900879149576 0.339245124421 0.441600184563 0.701905553696 0.456681064015
2246 0.379222313792 0.356300794312 0.241960381274 0.558249102817 0.0871056829148 0.444333969817 0.56767666054 0.668601121477 0.651945733991 0.421743860974 0.724276855284 0.647316952305 0.269479076874 0.604019971249 0.519858631103 0.481721728629 0.341708048291 0.638994680358 0.510444184311 0.481039299659 0.390524834279 0.657414952914 0.443250297744 0.471364173521 0.0339774560135 0.477039416336 0.641083507327 0.641866656735 0.641829798791 0.244670547139 0.615951589288 0.840181719439 0.625777544023 0.260057891097 0.493056313413 0.449170848005 1.0 0.595287322276 0.52208570202 0.322270832168
837 0.632493004965 0.442530874593 0.646650297698 0.771260884483 0.655256943131 0.639822289278 0.624982607973 0.661560349759 0.6453999479 0.478847709266 0.315864031028 0.454841393797 0.442455955137 0.741270866497 0.114723947917 0.31431854699 0.61168131601 0.298973445016 0.59816669365 0.478923826777 0.16569154696 0.468335759098 0.446449216277 0.70241057989 0.593168262244 0.471876538992 0.742189549594 0.877047206475 0.280417159642 0.368289898227 0.428142071779 0.512337471937 0.251531768749 0.753991159858 0.792043439478 0.676423122789 0.496846707489 0.666188314856 0.770290191005 0.610426226801
2752 0.310083409483 0.226041500094 0.670088677377 0.747712425535 0.71635406517 0.663253844678 0.700654238158 0.819156049414 0.58594269899 0.174229215709 0.296069917564 0.496709536096 0.601010501516 0.410577217114 0.721134353253 0.756100042837 0.52725825042 0.762135649829 0.674093407387 0.468179065638 0.430935404037 0.400788877778 0.507065169876 0.432550459003 0.402141286221 0.43611592429 0.48723661918 0.672499621126 0.521122207426 0.372988267489 0.43794689987 0.624340560444 0.472778232925 0.412104746879 0.429367810703 0.493264064726 0.714509698622 0.770236676615 0.624087166102 0.397229045825
1376 0.569610844236 0.306005385984 0.447879349132 0.611874635109 0.66041110527 0.471979106983 0.514117857016 0.558011513947 0.557178722683 0.769379486179 0.505330480961 0.607240672417 0.69801332 0.483170192882 0.385190286611 0.89215701468 0.139994035886 0.392191613991 0.562174585482 0.453622750526 0.55721988109 0.201550532423 0.772100232252 0.15166103185 0.662923648058 0.200387286199 0.544376485583 0.787282532474 0.752121555556 0.525002861621 0.464209796459 0.408103439036 0.508748388721 0.531641562016 0.682802764461 0.482295595845 0.327755044859 0.977486508882 0.38650229842 0.322482847631
2080 0.483746683885 0.564278446584 0.516844163126 0.368774366438 0.573247153308 0.460518488258 0.801194009218 0.330734494006 0.371065048909 0.283766115688 0.516474466201 0.341039147066 0.444649723479 0.55587291335 0.475103610684 0.673524204407 0.345349243369 0.420219023613 0.32396843889 0.596357385577 0.763430834283 0.662211028513 0.706812288644 0.372653137889 0.451972394667 0.342222956454 0.457913875447 0.765073424589 0.343227295495 0.540544847237 0.537180690944 0.556088246368 0.716121557032 0.625840786583 0.349097205464 0.60496533047 0.523372423576 0.755289811791 0.859310639667 0.548254890462
2547 0.510682655205 0.356678067895 0.626691855883 0.541660902191 0.340785747204 0.445922611784 0.485555306944 0.512109573504 0.709203516871 0.441365869285 0.635122266661 0.430587150512 0.282788482958 0.811929877709 0.545337397941 0.780913087529 0.522876220361 0.549579000486 0.516858394828 0.520770179212 0.572418963667 0.34816875496 0.355813983587 0.543632982983 0.388883635129 0.596519930941 0.554500750342 0.447777291163 0.565527098994 0.333757641058 0.578289151717 0.345209247361 0.70998633433 0.424968438079 0.235364460929 0.622594115926 0.609427772557 0.594843836707 0.66591698489 0.41042749694
444 0.423530983741 0.287294540854 0.522447681727 0.287725264174 0.324488798165 0.804415881721 0.168142394448 0.613777446098 0.466164511186 0.253048839857 0.26895565093 0.888928445076 0.819041049619 0.703643009634 0.490968938629 0.898762988185 0.529050013823 0.780342088934 0.244962804664 0.42820184805 0.456882570679 0.758611169432 0.591805211192 0.653006800911 0.378589192468 0.284665055947 0.528395967148 0.526395991893 0.497828402954 0.431568760293 0.728295403774 0.465174252476 0.980607054677 0.81731017839 0.384093078447 0.844867533417 0.371005994875 0.41748675653 0.413597573739 0.431593625955
885 0.428472194774 0.358061781733 0.346136766298 0.511687243538 0.798799159056 0.627425870118 0.50148953216 0.344619112641 0.545952459227 0.494634343547 0.091648937767 0.447872903012 0.786763174717 0.799761648228 0.42531111746 0.443306963436 0.536710535867 0.779651955324 0.0 0.60859328896 0.428989297655 0.525936707104 0.51479027683 0.370257036347 0.637906940662 0.65306909764 0.286855375123 0.452008163139 0.619118950266 0.79525297655 0.761179215509 0.497077217108 0.314807416323 0.78251270469 0.356746916778 0.357889684059 0.198205623625 0.306915474779 0.528711619585 0.253200444255
1808 0.657586345834 0.663546399981 0.414748272526 0.686973415161 0.371361728952 0.868573680906 0.309558419782 0.579995138419 0.577852963961 0.72685164996 0.752104707054 0.853713467197 0.917248200916 0.920395080922 0.265747953402 0.461700587877 0.28387005719 0.565206519256 0.347650458622 0.255082779094 0.569213109532 0.513379072943 0.886178352849 0.486832528546 0.573603025955 0.395750302088 0.643900539476 0.449014733722 0.445650869845 0.599225729142 0.746075800984 0.671337543961 0.740411835639 1.0 0.170777800492 0.728785079914 0.517895606288 0.70733667202 0.457890196208 0.457277540699
204 0.586004562479 0.499708058739 0.50077957502 0.785283086475 0.427036401952 0.483295374901 0.714654857269 0.433032904667 0.48852091455 0.623501978438 0.284942418601 0.312930969659 0.133334382597 0.534518709471 0.348302856861 0.945152758751 0.566614571306 0.760229452165 0.537712580846 0.567698089337 0.587706768637 0.32360121134 0.321232593945 0.391747928031 0.501133626765 0.598393785399 0.295501010715 0.684671124114 0.471532422343 0.432126477519 0.743606050788 0.373964310815 0.653787109992 0.43555619368 0.464052172051 0.522121757379 0.20405398306 0.720396849525 0.983610381501 0.535509292652
251 0.15525909207 0.606167418336 0.428746728313 0.732830048505 0.215677115938 0.579667940939 0.721494579199 0.713864239758 0.784741837177 0.308570706069 0.375752770802 0.4002033966 0.334352632522 0.604188589409 0.397675227707 0.57372523162 0.929480300087 0.274666573008 0.427122219284 0.541046268094 0.520658265042 0.436353914971 0.429892547928 0.858109897191 0.388217710077 0.513738992005 0.584261947781 0.430844491936 0.285861109884 0.510803115462 0.429568893777 0.612673664506 0.733419979974 0.484107710419 0.615679948437 0.623491677011 0.190594409064 0.517910332497 0.792293109708 0.592858742743
1996 0.537971696583 0.361407714438 0.508963389273 0.64654172973 0.407978684123 0.446687958193 0.375545930891 0.563979613549 0.672713254925 0.461129674534 0.549523546587 0.313274401737 0.168648059992 0.872472085121 0.598142670934 0.888034129304 0.603954778967 0.343546950549 0.602351266046 0.561931773621 0.402558015352 0.368507519872 0.324764056316 0.916113619822 0.312741901622 0.552053042377 0.306020937152 0.588224774024 0.532010107911 0.282107448738 0.50012015475 0.30654078703 0.752392335088 0.379512821908 0.37006685716 0.822780532459 0.53919229714 0.457532753902 0.789639017433 0.442659465306
125 0.550699916408 0.580282714615 0.760508177208 0.725259332225 0.406729482985 0.593173746948 0.51308431625 0.318211307413 0.82171300125 0.425902049309 0.501346953459 0.474139416659 0.440753121156 0.592083234496 0.529081630178 0.381509005288 0.361156420894 0.742456185221 0.647771247519 0.323269558867 0.494134953922 0.353635326257 0.67524122635 0.410811739724 0.401600748955 0.689972359943 0.727342032404 0.768043415162 0.383116706152 0.221716499586 0.671022307688 0.822161674866 0.422376522919 0.325449256115 0.663552062663 0.547143092655 0.430673387309 0.483800394347 0.624863851009 0.315048627994
3006 0.334677378916 0.285615064905 0.594262511691 0.446653237744 0.447291595453 0.660566257151 0.219659143082 0.59621066504 0.757877011911 0.447900321964 0.0363190227525 0.75442584838 0.617297294352 0.427941458061 0.197537717542 0.558401840971 0.219776070044 0.981588532075 0.443202338339 0.886636161549 0.131767631096 0.802253885672 0.74070798821 0.57749699346 0.410862322893 0.369508517606 0.733191702692 0.783850186612 0.494944634847 0.467196267863 0.383901819411 0.33469712801 0.463489005092 0.551430928608 0.564241077215 0.628842991626 0.559745903697 0.556155015965 0.342473991256 0.292260629534
221 0.385467848798 0.480585693888 0.688744763577 0.114002764181 0.442272355762 0.0 0.852313310927 0.720444415726 0.61968775204 0.27326793121 0.442985778002 0.480241314657 0.287301931291 0.162330417287 0.377171143643 0.12992820039 0.519719641131 0.394533085137 0.53401464445 0.78793509327 0.287380093891 0.56900738168 0.67532337181 0.37652185709 0.0 0.506324297907 0.495407263256 0.528290364259 0.256792564477 0.363152791415 0.523200641894 0.634955766561 0.149891663604 0.481462734499 0.400745629743 0.563461467106 0.702019694944 0.633627806447 0.67340503157 0.168057427857
871 0.499654304004 0.729484369185 0.810141024374 0.452948045013 0.566095017186 0.391888685429 0.365545403544 0.245424871176 0.53048595288 0.565843284489 0.298652111498 0.544417502955 0.538765351536 0.503951666605 0.780320805676 0.221961820912 0.292318712318 0.586789780019 0.663367527333 0.380267243341 0.583028728972 0.48280464703 0.606469892632 0.305979362483 0.359924851622 0.650061669179 0.47375811773 0.737798315486 0.530718270015 0.329249161233 0.63578025538 0.637100107831 0.343210881739 0.471489111348 0.620302924572 0.628736843638 0.5171277136 0.309042967267 0.829145877213 0.386475856006
2812 0.17344795181 0.395548850985 0.702318962803 0.862977263986 0.663592844561 0.538886097295 0.494002692748 0.455068600601 0.602706588843 0.271934985144 0.611678288262 0.621369216603 0.330201785524 0.691826591941 0.803724932865 0.507640642293 0.425928516127 0.501378315996 0.308878993888 0.7337029261 0.461225283788 0.457022441589 0.578001076079 0.303678478912 0.343935801453 0.385306277741 0.784703100677 0.579414337124 0.831441467433 0.547017022858 0.703359847565 0.747865131106 0.527781149242 0.418361045943 0.511589462504 0.694647229373 0.511613537793 0.508680228006 0.625343107284 0.359075055672
1768 0.320666367378 0.70879092732 0.612676740055 0.422675210081 0.382364919416 0.618191595024 0.786674981074 0.415015468775 0.516009689709 0.491462974132 0.419464043429 0.282346531102 0.227337416584 0.31363177795 0.410143044249 0.572064088937 0.581722394539 0.397625928371 0.282647573299 0.705576933709 0.594131427069 0.379327084468 0.410625343538 0.430281858237 0.543854510128 0.528128467131 0.629774561719 0.503300381957 0.549896612246 0.50771920478 0.507780991093 0.540727294201 0.428805905907 0.243730941563 0.459046979336 0.551664010619 0.506957148611 0.831410313434 0.803912339563 0.539553707449
2191 0.587671100346 0.535887548132 0.574089500038 0.443467788572 0.397589344056 0.069986648203 0.379335381744 0.557887252504 0.706196669916 0.417702511122 0.251445994155 0.548998487469 0.133421249528 0.623811170524 0.705729104977 0.336831255565 0.712529975488 0.183109647792 0.339652350474 0.404687108267 0.568054483264 0.690867676592 0.455819609627 0.355958362355 0.538825564252 0.416523835717 0.417875349455 0.397674995055 0.580266393013 0.729307960564 0.697370152057 0.559920889441 0.48950013542 0.521955375285 0.301668534199 0.328363399986 0.332369405708 0.749569467078 0.297853192066 0.615377080982
1843 0.0979803330834 0.718630324249 0.565587421554 0.747366557003 0.220996425646 0.710683134318 0.759264550386 0.700257966756 0.738328667455 0.403497310384 0.316875107345 0.455475991189 0.430241011845 0.512555479662 0.343027067355 0.578009815976 0.777178640379 0.403744372589 0.335625639564 0.493297831171 0.600055988789 0.400848187438 0.272987852245 0.603271715567 0.464845452967 0.517293339416 0.646323555794 0.515021730699 0.321991848641 0.508341457857 0.353270251463 0.594575451491 0.579349666955 0.519510342944 0.501646195536 0.551325370355 0.355815670731 0.784569309039 0.801803434562 0.57152407609
1294 0.28503401802 0.514875702081 0.498942374642 0.54973105263 0.0 0.318968557366 0.715896357521 0.659077961156 0.717157029475 0.47559817326 0.184113823227 0.676923854477 0.171728657976 0.174648974144 0.491646214717 0.207912138681 0.693549778217 0.543815379203 0.255700804006 0.809509213891 0.171135299444 0.581501257958 0.719673203702 0.766699666868 0.407506355659 0.332168783944 0.32070847799 0.567250540057 0.221450586104 0.52041922276 0.40334934812 0.425235981651 0.451008966972 0.427164171905 0.395552146689 0.663823450533 0.606305417569 0.745823789921 0.326119555666 0.243271867575
535 0.909645331246 0.174874654885 0.815746840912 0.27057398958 0.535126420464 0.513420578996 0.566389278109 0.655458757864 0.430365030595 0.280666604682 0.365982067852 0.479069750241 0.479880468682 0.352145594636 0.848808459301 0.675063414948 0.417390829277 0.321072729996 0.488664581942 0.441906265549 0.580375874343 0.635444875823 0.903169784628 0.467860021757 0.505614659624 0.46132863759 0.310349186244 0.440695870397 0.635364344334 0.126278599939 0.610849209672 0.458330929682 0.276612655804 0.311107440649 0.693225851572 0.605762144903 0.430767659197 0.726181061374 0.371430412935 0.611652399182
2212 0.392095065219 0.380754518863 0.678706801663 0.546341195156 0.557565301062 0.60363487338 0.662359899214 0.750986458343 0.826926139576 0.180409861716 0.689368270462 0.358097341915 0.00208813573276 0.566654472811 0.449323166296 0.399901752519 0.348604718631 0.561872924759 0.639990665041 0.838777926775 0.522073965819 0.804545314359 0.63416532685 0.387120725952 0.275096062586 0.799475358298 0.925495457626 0.6422037908 0.6492437705 0.461941774853 0.322458764619 0.388507054446 0.297512364846 0.479635480142 0.427256397132 0.82212297855 0.351864423599 0.586429341605 0.669086403313 0.613776217678
2692 0.0499551362107 0.673975622975 0.475290574094 0.48687671032 0.253291188505 0.471584426297 0.323911795385 0.435230083672 0.51541588507 0.33798218844 0.155274403012 0.396181074748 0.32731368708 0.373825317302 0.42996756895 0.657430331278 0.200646390535 0.401694084393 0.293076064687 0.697451892727 0.425594701785 0.842993987187 0.44357703065 0.44361922203 0.764775409664 0.432571276242 0.320558047551 0.582052973073 0.202759972196 0.486674409198 0.268731173354 0.182926442131 0.380408531604 0.456239557645 0.151635717883 0.50098867927 0.377523597158 0.965379450619 0.58706173625 0.470847018875
2790 0.502931041908 0.622138855358 0.684195136187 0.77582046933 0.413297370633 0.554300831779 0.598087904892 0.740370980764 0.733679757291 0.579751452184 0.637458396756 0.162962095503 0.465216604357 0.607080247954 0.540617014785 0.420243952005 0.252478787307 0.744447036073 0.495772699348 0.368294391953 0.564212142403 0.477633141289 0.814466422977 0.414210890849 0.458277872506 0.729926228518 0.883046423755 0.682260776089 0.472638816972 0.0 0.447296167302 0.651395374954 0.526428068117 0.498982054433 0.368835668902 0.64681910645 0.4171277136 0.549395201036 0.467870612041 0.130814517979
1975 0.329789556087 0.807172443462 0.669175247545 0.467539546608 0.279456483771 0.457250887183 0.472653476633 0.271834096535 0.543304795826 0.56244015799 0.527624356974 0.281145381726 0.379435056224 0.494836283198 0.576682180561 0.419629612844 0.0998996622612 0.60911120457 0.534297738572 0.50727172911 0.47057585241 0.404128901241 0.552210835435 0.108659683146 0.461738153949 0.831102166838 0.240283493897 0.457602019979 0.430182645956 0.182293859082 0.391783920914 0.37512045279 0.252226571412 0.463393780044 0.193102886452 0.596110662565 0.475118350621 0.860129018131 0.806143054302 0.628820278058
2011 0.683231266492 0.507246737772 0.635483474388 0.498530404611 0.567877676131 0.266779084534 0.355023487802 0.802941232858 0.810178459907 0.392458267955 0.702864133882 0.351884253775 0.0 0.704795328991 0.255996947263 0.12927584881 0.296385084455 0.356268043212 0.949862508239 0.613310482352 0.6132841668 0.430732842012 0.538827728821 0.30255477642 0.590993995874 0.750736682305 0.773255574732 0.724134753449 0.410222121565 0.508485136438 0.617260386495 0.502552762845 0.519469365187 0.429637807676 0.561773320975 0.437341453185 0.506370503114 0.884311526943 0.400354903906 0.51809813336
1081 0.57156674027 0.466091652291 0.587622049162 0.553943385472 0.614702620643 0.527376404516 0.537750158428 0.716195621121 0.64052381077 0.614908864612 0.800974954146 0.668597167487 0.785728943698 0.654067555865 0.446512741667 0.726730478796 0.0584113857408 0.320613141237 0.676738519539 0.551698202478 0.667196245665 0.274311029343 0.72495851126 0.226838228581 0.609115428677 0.394727801442 0.509000974012 0.659040266008 0.638722371068 0.470026284416 0.461014356676 0.343378945245 0.317771495615 0.483420386842 0.759856294764 0.346377793841 0.641131437778 0.849946120251 0.366335986736 0.492984071239
2324 0.89344245371 0.664145565903 0.813696506906 0.249746824235 0.533681535037 0.842789442292 0.460298061359 0.540849470161 0.626794922402 0.236449821574 0.459560146123 0.416717474726 0.310028378549 0.715396552759 0.617098980775 0.696927280782 0.782190468699 0.525364286381 0.603754617371 0.425126993943 0.401575180655 0.648487366449 0.549976003489 0.233998163467 0.898756211108 0.507559558785 0.628502321797 0.569350724742 0.439985452727 0.641316382625 0.619587053557 0.377658708391 0.493627650955 0.594504888663 0.561836084422 0.802575075043 0.297026495362 0.784159060449 0.644822613091 0.476874804136
1253 0.30992442472 0.649247080234 0.61486064163 0.405307421785 0.414765937597 0.597960555424 0.902531057617 0.408847367421 0.570994065366 0.507236169245 0.41230604633 0.339328889837 0.319662435712 0.397449578883 0.506434122842 0.592961269732 0.568394699881 0.46202388961 0.239859652437 0.661649050583 0.668562350074 0.388593329087 0.428760472556 0.393794462227 0.477028088181 0.501642634147 0.610715979761 0.522467577335 0.384546060255 0.489031694008 0.456223452253 0.579832337226 0.56244036722 0.326312687079 0.440131101311 0.577506114077 0.439874381979 0.853594041587 0.883469768124 0.434951677328
2049 0.323208943734 0.38072961258 0.109938461256 0.559776112382 0.364296840602 0.281702295387 0.108580175979 0.854988789251 0.487662059183 0.361799685633 0.269121251894 0.354368897332 0.142119746821 0.660072077119 0.329369094348 0.19923039473 0.230530444423 0.519729446011 0.625047894491 0.400449476917 0.521831494686 0.343778357431 0.515035392543 0.00561362112639 0.735909349899 0.483121230155 0.61364690454 0.613113616106 0.725711552395 0.703604101506 0.667451243357 0.565023343008 0.797239838125 0.239402850135 0.599334041407 0.28483356606 0.305391885029 0.825626101586 0.387732517642 0.355680365683
2078 0.559288338187 0.339632264392 0.410504557957 0.223411356662 0.579604088306 0.444734654243 0.493544466833 0.754700810398 0.416689038617 0.299700580819 0.657331988841 0.325741257336 0.700385362287 0.798417561438 0.280521591065 0.505594989378 0.421470606759 0.259726486151 0.315682575355 0.513396237816 0.488598621552 0.164397775651 0.322002278414 0.252295340059 0.283409062113 0.614284471694 0.238910857292 0.0 0.512802320296 0.0174600017156 0.707215073495 0.832366582001 0.323040532871 0.352435189397 0.264365271986 0.30868140245 0.576671355939 0.766636981483 0.66674984419 0.403344275253
334 0.352173076889 0.691051993281 0.371617724445 0.0 0.108203752215 0.569502302957 0.456859281443 0.794366246521 0.423313316126 0.407289349953 0.183096349249 0.340947680231 0.310415193662 0.313980731803 0.7068128038 0.657871567734 0.351617885967 0.662696372131 0.126447361429 0.951879741782 0.455859232281 1.0 0.544210765704 0.322027177557 0.592217580474 0.672235978631 0.472000682039 0.312820277362 0.285941301567 0.301416681428 0.567390526994 0.513906643669 0.642856259855 0.0 0.508151562707 0.376317867196 0.573056627343 0.391354670822 0.542419354266 0.119794110513
2412 0.497707846768 0.42860175278 0.141811130286 0.346658494946 0.463562993359 0.834968656559 0.230329729 0.745719903346 0.496372047045 0.278561592119 0.372521952585 0.0782041436202 0.565903851928 0.99473739865 0.43795246281 0.292319006063 0.459554684574 0.0705437226209 0.402273640457 0.323288587066 0.426876216833 0.462420806777 0.50155033047 0.448112401554 0.995866681172 0.699037823137 0.675531090219 0.348728908251 0.361235340349 0.405036292785 0.450493862335 0.625732231784 0.56200404351 0.308016026894 0.652695011151 0.466446902757 0.428357450982 0.644758935778 0.643399922657 0.245836082247
381 0.526484383803 0.692648542629 0.291782520974 0.271323832555 0.323948796775 0.763099444132 0.263583284944 0.876319626941 0.764322977396 0.242123344685 0.554828190845 0.319308254327 0.670334549672 0.810307713852 0.641355910725 0.459027437656 0.512196207704 0.507287528754 0.486176088273 0.321741903051 0.512987084555 0.614100812186 0.608712912712 0.306278712131 0.759399540016 0.713115354218 0.746540840547 0.273203813917 0.360524892156 0.147587912834 0.526256506712 1.0 0.622014708576 0.293987166595 0.735768964936 0.322548040184 0.646232918693 0.379100001271 0.629477247005 0.239108255144
435 0.506603324463 0.527042704369 0.29140451039 0.34124634417 0.635609679642 0.716072144079 0.176324021138 0.652863468864 0.73757105464 0.59583045694 0.156123077196 0.09741119273 0.446376771238 0.873486937808 0.535776188936 0.388914993998 0.480484727139 0.186273035348 0.572351990096 0.525233834709 0.59407769767 0.250637282289 0.305916559759 0.33136277786 0.865714948779 0.651265328905 0.35936679648 0.48258718608 0.52234137161 0.619974669015 0.594364328748 0.604859209761 0.331756330768 0.115876417482 0.827566781588 0.289193148476 0.414071611611 0.465819188881 0.713624714841 0.575858180219
462 0.270199766272 0.579448354133 0.398695174103 0.262893287107 0.794408103324 0.378674191355 0.316386522199 0.693880396112 0.291434936871 0.743360982365 0.269559737657 0.125922218675 0.327103027207 0.411209106524 0.485489652346 0.191158019085 0.17533937653 0.305259094289 0.486590940802 0.753773047585 0.609032655902 0.189645304514 0.648541310582 0.137716164359 0.763713301352 0.53636072371 0.208136476287 0.589681514265 0.594196565478 0.758167436803 0.744536216446 0.544871928347 0.398230655379 0.363347958472 0.598823479985 0.240369301062 0.221762796752 0.378294493317 0.268222086352 0.227626933878
534 0.462001756796 0.741290796421 0.267336208818 0.286653071728 0.497784997185 0.505022651069 0.251368197632 0.543871271772 0.580027119354 0.584279080509 0.670341630114 0.300774509598 0.710385047507 0.690918911813 0.88996304236 0.72368071323 0.354873361228 0.268104450026 0.249021522922 0.550592252694 1.0 0.668361143633 0.615081959246 0.294996360847 0.769063092447 0.647338025322 0.24543598329 0.256779605508 0.435726522553 0.742632090677 0.478865919577 0.556213179336 0.613073022552 0.311422919647 0.324929948309 0.209798680477 0.503194737119 0.507348142037 0.459622437117 0.327860663828
636 0.438896757832 0.726340233978 0.475697021644 0.0810096732511 0.917856222527 0.733105539234 0.200421698934 0.61410525962 0.492367278407 0.422247966914 0.367236009179 0.0304932182643 0.515682053716 0.716282226789 0.682877530046 0.558528159161 0.318376931476 0.287884477817 0.647626748324 0.887147351545 0.521751038355 0.287479256447 0.358590288822 0.250598373207 1.0 0.556249737961 0.221375671547 0.672401370627 0.373734905717 0.561746334802 0.656984373868 0.36066816609 0.562721322603 0.20621165528 0.489397076402 0.450552180895 0.610655642012 0.545498328213 0.786522816856 0.264300235391
2705 0.286945079761 0.74781312929 0.340689794633 0.520171398609 0.478022130397 0.87896015213 0.54534514869 0.679230090299 0.368250449051 0.472580120069 0.716285932087 0.0591570998357 0.54444227193 0.511435169175 0.394414998141 0.330915353654 0.296458181522 0.341698989475 0.490108330891 0.59705680046 0.522624485507 0.00207643117173 0.466770312578 0.228603674109 0.690959408865 0.739408451462 0.538401072566 0.629253347581 0.332092554985 0.201416389291 0.60073516164 0.726009371338 0.466298558924 0.299454067099 0.587659015674 0.777031454091 0.351723453562 0.665740919055 0.822846953751 0.0710796496664
2726 0.256666593909 0.645104429498 0.388452408582 0.430781676715 0.679791016658 0.422565189529 0.293697486878 0.464347735116 0.619482423041 0.613854301315 0.406342197045 0.300842061924 0.681790693676 0.560546780108 0.371385898672 0.34151643233 0.219161953508 0.179137552124 0.342861786364 0.729980341813 0.828953698484 0.299724032155 0.348867013368 0.231386843224 0.803300016885 0.717083332551 0.263401064336 0.474591008217 0.488943728306 0.690635848098 0.641567730068 0.534411011032 0.233658511094 0.274974859829 0.603851216304 0.00222253221192 0.387135243677 0.558060602743 0.448415645574 0.524888734627
703 0.398316118341 0.773599623009 0.240244397056 0.343552249667 0.415637168922 0.471890878099 0.482810420498 0.891082833151 0.759793510694 0.510121750635 0.534497412147 0.31377611335 0.602402793786 0.666160907451 0.500360899964 0.560921479502 0.575604498834 0.236368210146 0.23241996376 0.719585802392 0.834423902363 0.737475282699 0.424351559324 0.586266177272 0.643081294223 0.882892074869 0.397835842537 0.298614090021 0.195275206266 0.540691447194 0.348407680181 0.791386520415 0.60503545095 0.271795111954 0.612440329895 0.119852350967 0.547553600719 0.312234694779 0.541309170854 0.361934577597
2784 0.362528028807 0.799513478403 0.432374021366 0.282804592581 0.307587346705 0.774310777106 0.473915236548 0.657134038807 0.555268764852 0.188361186695 0.413727311068 0.378619195955 0.518864954914 0.540973355473 0.636633244295 0.464786611441 0.637981843093 0.583451382504 0.290849534076 0.804954531604 0.548894028542 0.490296346644 0.544255668367 0.46749871521 0.739045888505 0.727478234315 0.314850249296 0.540773957068 0.277074482098 0.385556292391 0.857319303669 0.702505930049 0.727090336146 0.251323189024 0.882000878176 0.410317631416 0.409670602931 0.137323465209 0.6460457366 0.0
2830 0.303106957515 0.577666139767 0.347911635143 0.171066575542 0.489688092331 0.762111437256 0.279928066278 0.519844079108 0.44043667392 0.355717776372 0.0334705877432 0.140149625935 0.40761384108 0.540104829053 0.54880255133 0.639488177407 0.457274511356 0.214304047233 0.28652885276 0.908663359017 0.554858267356 0.437561756183 0.381675540225 0.562067443019 0.95065226674 0.559897324415 0.124821055258 0.650060298836 0.2986648398 0.64475085842 0.660128694633 0.318716972553 0.620354543217 0.205312329817 0.635672027434 0.405265268989 0.288847898291 0.497108545781 0.588813194715 0.166274104241
2878 0.357023439486 0.594309763404 0.310273442976 0.384134733778 0.380653928284 0.727547902672 0.531990753251 1.0 0.409787481643 0.442467058268 0.71550492546 0.15174101326 0.594371386094 0.544390588249 0.203468521218 0.358855065959 0.572511658223 0.0 0.583024420986 0.610719818769 0.563165107963 0.0416190706651 0.534254788803 0.733747401071 0.702227187391 0.561696087026 0.472554345053 0.552816706952 0.384707696616 0.452894007966 0.566852273806 0.683300387668 0.744305315339 0.451155999177 0.873173007312 0.583099784275 0.380184224198 0.461409749709 0.478054733964 0.113159345498
843 0.494892430143 0.7830753316 0.307460193992 0.0831135915265 0.133420539559 0.516868031256 0.514515006005 0.777998765906 0.124952933588 0.505125671307 0.681330349071 0.514483193894 0.365398934109 0.293000631604 0.607192997428 0.597809315089 0.0726615198575 0.414733076792 0.422243118498 0.64796983259 0.509356630401 0.384230807098 0.621776682153 0.206892998479 0.481539677727 0.522341075928 0.040905229153 0.371550315814 0.546664198266 0.203914431305 0.777590424907 0.501849588216 0.700512237855 0.1653056669 0.73294076719 0.454083480226 0.554969850508 0.412995854176 0.373348029343 0.288963154008
825 0.303000771032 0.510934282791 0.319498509788 0.286521987554 0.777133044439 0.361924277169 0.254152113723 0.718693394475 0.467519625698 0.457961047805 0.469542956103 0.564277640057 0.761741261247 0.524172985084 0.604703372766 0.497721447922 0.18599561367 0.549307029607 0.263225016944 0.690765795012 0.654118785506 0.486806566291 0.687593156517 0.0534407600742 0.735347212216 0.533131774301 0.306983757792 0.428821366465 0.656519599505 0.603418965944 0.801455739325 0.658247914114 0.305785377059 0.393533830285 0.721079756714 0.0753460494866 0.505405310747 0.253548617716 0.164912350207 0.105595669413
1019 0.554051279813 0.610506206051 0.325083357653 0.217279107604 0.462214080482 0.777969404416 0.218377719376 0.705157417947 0.441706471674 0.284560123684 0.72944419592 0.382438121207 0.764780695807 0.677420027836 0.853874758437 0.742059425106 0.456604749994 0.406831212051 0.455081104446 0.320857348935 0.666037068326 0.352581097063 0.827382013631 0.241019184465 0.78672380416 0.462932787165 0.445285618686 0.368010408131 0.520548335694 0.384394912663 0.654046283259 0.701878534434 0.707427954611 0.351738050917 0.630190601059 0.593614540959 0.477502291128 0.535163257107 0.45197178035 0.0365741329899
1505 0.421696612238 0.705685566667 0.171541260602 0.223902835845 0.0637737590485 0.45180706066 0.345731750736 0.974160247084 0.328115739577 0.642996726054 0.506600662502 0.354921889542 0.176110746559 0.346402002841 0.316954363921 0.467681403302 0.219754317975 0.198855440874 0.547596015054 0.704610609764 0.424734480332 0.517383957686 0.437970008719 0.315830509403 0.779034582531 0.457830296181 0.519008712786 0.394308149526 0.564228369625 0.581147723624 0.546726415778 0.507292023303 0.719831291912 0.127332932138 0.731974978648 0.378058036647 0.612300292447 0.687969289032 0.182841147093 0.311993700112
1690 0.181880633414 0.60342999141 0.705214363023 0.353621174348 0.775827443849 0.476866934921 0.447928643082 0.548360305167 0.905159047501 0.219856562935 0.629469934198 0.209560626363 0.613706693657 0.783718059005 0.413496888041 0.584280110587 0.287350893997 0.367051718595 0.4551796125 0.741928765108 0.970444146499 0.414560877214 0.571465361425 0.357942287475 0.767975959263 0.66926328015 0.707725508229 0.491366799294 0.38547358984 0.372308914791 0.618141688386 0.751079936277 0.47941411812 0.330606566562 0.633877249045 0.0 0.603238808497 0.437002076659 0.660390607168 0.310209887981
2839 0.315320467858 0.689157417615 0.61607423944 0.663753877186 0.582592636101 0.417116664426 0.258563357479 0.533227628266 0.387573557265 0.567240957977 0.497984983216 0.323152326795 0.414741166814 0.446498315247 0.771523351755 0.393264784272 0.0646203366158 0.526831007922 0.601694960023 0.396556153115 0.437853270798 0.42296772487 0.543220265787 0.162142182605 0.478364679841 0.47312337653 0.3684258689 0.606374787766 0.573575086198 0.344751309905 0.397191761719 0.525398428644 0.382637350658 0.457317233903 0.0725747820059 0.626473683988 0.564619147409 0.719519002265 0.712649941283 0.472061711155
2639 0.41281027838 0.359763616732 0.623728092046 0.2772309212 0.651356344518 0.473834523858 0.600889697157 0.800680621345 0.673319857077 0.171134093003 0.212351617353 0.332908953518 0.241592673395 0.54289188718 0.524440590786 0.668348375042 0.470358380503 0.810915097956 0.407168278791 0.828688867089 0.308573724175 0.409945399528 0.280877250119 0.298848449512 0.30080213939 0.58292423921 0.349828124172 0.732730708868 0.793903301987 0.227909816593 0.5780007302 0.498535451095 0.161236080066 0.460659067876 0.749670171685 0.686359232033 0.500131046681 0.378850398078 0.691415429155 0.321390772589
2430 0.339335131031 0.286686318101 0.553437081345 0.557821263444 0.88340114251 0.554673063696 0.482320017471 0.860099839928 0.56188308874 0.123217424622 0.251598307671 0.316456017642 0.543139267969 0.787131004878 0.496508446258 0.310712045697 0.5618865316 0.284080187582 0.526051340409 0.427825398274 0.315249670873 0.756005992648 0.597870504418 0.811656244864 0.441808871607 0.529991057813 0.890089333297 0.76819046983 0.508649268204 0.39413451449 0.470301980586 0.633925240248 0.283858495136 0.847542600882 0.439505516266 0.607652847232 0.44769398703 0.414387245342 0.735496067201 0.216224263509
2242 0.368624017849 0.535804055479 0.494197422634 0.670338868152 0.359379805444 0.579273521285 0.62253744537 0.809266021975 0.551038191194 0.450208567662 0.665548798643 0.148243084824 0.444942104855 0.498550169618 0.484587759198 0.321618100929 0.284347843902 0.563348051581 0.486312507944 0.301784150796 0.55515198807 0.528972472015 0.94904868426 0.340430333054 0.488915693309 0.716459757341 0.826615588346 0.628521285039 0.369650455103 0.0489619952891 0.336744024275 0.689388309756 0.525580425726 0.527279258644 0.2395383582 0.636916579423 0.376909516499 0.675814004564 0.443010486281 0.081058299123
2388 0.584705547831 0.288759766164 0.353811874818 0.73775971268 0.846682294405 0.468837323428 0.423094169001 0.465262536027 0.477631367901 0.81750706722 0.385286022147 0.488211256338 0.595211906883 0.452102154026 0.367854244934 0.785364049317 0.305188854746 0.555184722561 0.586450139543 0.381452391575 0.539645683545 0.162270041624 0.916141635677 0.256122645964 0.790968549529 0.189227699129 0.465429472318 0.775770849013 0.721136240971 0.578045487948 0.473618201578 0.489919513813 0.503603252789 0.636500892034 0.595270556566 0.500718142805 0.269788048776 0.875965135061 0.374113479371 0.203871431673
2710 0.564798236832 0.396862091364 0.759780593006 0.34270625524 0.558531570139 0.69604523166 0.353661919252 0.754843296853 0.387016438833 0.0682021327686 0.261109905398 0.483156665923 0.537432080351 0.49130016033 0.6996775732 0.66954752064 0.343979874784 0.427857923133 0.651901749248 0.486779387318 0.440520728802 0.584525457485 0.788933976445 0.439574088712 0.527984262252 0.42693719756 0.457560347458 0.689871657878 0.811811420486 0.331798194537 0.765734070349 0.429506914152 0.542608569589 0.361868992929 0.59863185934 0.55510935826 0.559215295979 0.598978256173 0.46020842474 0.432303926609
140 0.211901322081 0.218690750288 0.605061665131 0.511324081581 1.0 0.667394076396 0.294402403988 0.743168875088 0.557600471859 0.510690858266 0.269781195112 0.278853286951 0.927300853778 0.372552964679 0.430109988153 0.462823708638 0.45336824456 0.53004362641 0.614678756536 0.391212057707 0.575277367689 0.0 0.72225035242 0.64303271846 0.32891982373 0.215708838874 0.274870315466 0.816579161647 0.639137738927 0.34843782077 0.485481823055 0.695723025658 0.366325643023 0.695231023167 0.51748077261 0.618363226204 0.537707879729 0.43339195424 0.610970445173 0.279371408347
211 0.423402970036 0.673723729886 0.550263056302 0.575540454167 0.596498684584 0.491299927303 0.464382469075 0.63033640768 0.475572105743 0.65002733088 0.574208424931 0.372899190482 0.515235309501 0.484159609949 0.298378219166 0.542739554992 0.404735425292 0.2975745661 0.546050339791 0.82312851877 0.725619665291 0.403854297519 0.619121878241 0.841969472858 0.213651568941 0.575190717647 0.188074256678 0.827653855144 0.426576839452 0.579699783473 0.445728266837 0.591591738176 0.681285056208 0.543654160986 0.22382059799 0.719228708052 0.607333652437 0.587569500315 0.563858755104 0.297990909226
580 0.435608811354 0.491691348887 0.49674238751 0.607945914463 0.67059260868 0.519790547763 0.57373102258 0.487666282521 0.346329161154 0.512619241762 0.611406387719 0.364946013612 0.52953778318 0.520002972252 0.344016010316 0.602692741236 0.360520805221 0.236418341644 0.392574170815 0.765461504539 0.776120891699 0.453900084576 0.700346569318 0.871601501053 0.268102005599 0.459191961668 0.1792646947 0.808630824713 0.361185533796 0.520451623475 0.572041856452 0.461507504 0.546748728115 0.637030616325 0.226694395301 0.687094048527 0.64937307735 0.643321273524 0.634477359354 0.446796453675
626 0.433284212253 0.169355932012 0.35257529764 0.789761738086 0.897508484067 0.468345277732 0.291718892404 0.430208974611 0.530597149055 0.768395135679 0.279479555294 0.509555818807 0.561162188732 0.403836491828 0.429652762576 0.727460024825 0.396928962044 0.560788943693 0.571773371813 0.361868260578 0.568293647973 0.128974785091 0.956566974831 0.323342294257 0.784312460043 0.119397913573 0.513868731832 0.753801909014 0.766858656833 0.613725314705 0.465711292316 0.473925021786 0.48076326587 0.754421052573 0.618122343121 0.555307328955 0.343514502694 0.841312652112 0.358664634139 0.127085195287
2603 0.385048412188 0.712547530669 0.702555075797 0.460566837018 0.557389559121 0.304455689132 0.387609368664 0.215077859853 0.540975079544 0.629222675771 0.310001313981 0.427196960638 0.491585106589 0.494265267803 0.761127320769 0.251525833093 0.190867571131 0.649581732202 0.685662665541 0.440288868632 0.576725857177 0.432689467672 0.621672613628 0.164162629686 0.38226732202 0.628216825204 0.462284587398 0.547918309526 0.535420760436 0.361449629238 0.493909444665 0.447133727088 0.382513449334 0.467180369298 0.409160798925 0.63278173954 0.513434181878 0.474356856316 0.941810423839 0.447454727493
852 0.352163638091 0.378486065925 0.573785885154 0.559756052008 0.541588364388 0.29371108173 0.498177673076 0.749134607806 0.550302191958 0.602629304682 0.600452363763 0.475845975767 0.135515136033 0.0 0.358548762594 0.763885863328 0.24486682802 0.708593409239 0.90574830229 0.48227330408 0.710301000359 0.304635168493 0.91247889905 0.316659427492 0.564232396253 0.322660278854 0.722296852251 0.537125524324 0.655448601986 0.364861530764 0.578666029182 0.305098596347 0.615165859201 0.788408376206 0.569359500311 0.53694865866 0.78113365594 0.75048804593 0.444297471206 0.171899597488
2163 0.407353472976 0.365319132978 0.608211849081 0.592419530228 0.426800832967 0.306276127692 0.328247959211 0.756742248394 0.619536741378 0.476632440671 0.320642590796 0.63869515534 0.282905919785 0.395829701374 0.614114456519 0.368317526503 0.306540771091 0.44511276435 0.800003791162 0.629047317217 0.441243458101 0.638331773489 0.662087915716 0.704554940769 0.102550614124 0.225942918933 0.40419078793 0.841276961093 0.80683671689 0.270110951203 0.524979533599 0.865911425256 0.714197012658 0.335885020945 0.362031598962 0.495434697147 0.733234197055 0.530435459816 0.606796687721 0.444614746164
192 0.293769331102 0.444738193927 0.538617687678 0.623873852062 0.258254340343 0.442702518569 0.532836594196 0.773193043347 0.617513027869 0.330120823607 0.575830231699 0.559667563666 0.276326430792 0.576666676193 0.433027155831 0.533425635283 0.298884043011 0.625436962043 0.553583253755 0.571862179269 0.340406602048 0.588149870764 0.476279375916 0.599033863684 0.105673981744 0.429437443173 0.581242476421 0.689691210883 0.727829114029 0.265863270576 0.645256568606 0.724343939778 0.621920307567 0.400663655642 0.280495733879 0.41246877206 0.856725409047 0.631340320268 0.476902567584 0.36786270582
2493 0.208297470815 0.618973776231 0.517276749706 0.74128722583 0.535009882368 0.237508499861 0.403635656173 0.776597096827 0.286445897231 0.656943291373 0.509391764637 0.427713464732 0.512665622246 0.489004381214 0.502799436374 0.499763884401 0.344214847709 0.424956600232 0.568614899079 0.59469858947 0.504543027329 0.23777627922 0.649929331133 0.336835854653 0.263827757221 0.48927813582 0.118646165554 0.691951935599 0.443578102784 0.531328702864 0.440018974177 0.630219919572 0.561495233311 0.403880419719 0.0709419076911 0.743793513043 0.363198356225 0.566215067365 0.544501059035 0.480934362895
2336 0.575019275796 0.45727256389 0.499592690723 0.73974707326 0.403312486309 0.453419195525 0.756367716465 0.380201672772 0.521984706687 0.621107886625 0.294053178333 0.278249260684 0.148783984038 0.513604341775 0.432430365144 0.917260415768 0.545730815118 0.725197441553 0.544573961991 0.581626473882 0.561977550479 0.302531454878 0.351610037805 0.362176878468 0.516003933383 0.537459880616 0.327702670453 0.674939829596 0.498896894483 0.43991699043 0.712741189675 0.396657394547 0.674533979306 0.435553669848 0.459453276585 0.503216847658 0.235206026396 0.717410083382 0.985192134166 0.52122023204
2395 0.341832283169 0.189616344182 0.219660916463 0.741361241696 0.489034980436 0.491069696902 0.540302280136 0.608619531106 0.312045190581 0.606809983053 0.527571207184 0.554823273009 0.428549074065 0.409642386604 0.588396516752 0.749113360342 0.141570807915 0.297473402539 0.455805464928 0.287174865292 0.540400374949 0.252293207976 0.770755793698 0.322527724082 0.57778613111 0.0 0.591632710095 0.738232736809 0.864825327791 0.396982324879 0.548613058353 0.357579317927 0.478962060909 0.466854514547 0.669180278649 0.650593700727 0.464538884965 0.917752489433 0.406231632452 0.371843857939
723 0.461471414304 0.504174774181 0.0574633536548 0.692733855549 0.402161438915 0.473391552215 0.450825179067 0.488898482661 0.574982055042 0.712937996889 0.352843981254 0.379989965768 0.387591467549 0.602065715355 0.31315157142 0.490034459719 0.518827553396 0.182025066349 0.284663725512 0.660118823389 0.556957846945 0.131820462544 0.707247580341 0.686864941787 0.824969449898 0.254599532053 0.0112562784958 0.784711644418 0.288901502372 0.635463538705 0.789865754944 0.389520513413 0.631092938917 0.697754574726 0.369905209264 0.524277359996 0.269228254715 0.876125454605 0.488552841183 0.178789855793
1836 0.630771899045 0.484058139189 0.496975915326 0.448147043931 0.628932732279 0.625808253577 0.782337327566 0.289228331704 0.399260531216 0.346630978818 0.388223286202 0.353932765713 0.495453560394 0.487076704115 0.453984469742 0.79163726796 0.309181623954 0.411196254607 0.39588553302 0.578995953936 0.860587364278 0.734698107903 0.754259876011 0.528238650148 0.436650850069 0.258396050669 0.494219949051 0.84670578278 0.475905688316 0.52395833693 0.497661179642 0.510688425029 0.911051492379 0.63730515316 0.311712222682 0.511158220152 0.501347241599 0.896169633719 0.818517681925 0.5993997129
331 0.350793832453 0.647544113131 0.569739505898 0.476306968006 0.624265599668 0.566012302448 0.479250678475 0.686715126263 0.611640391001 0.552754906051 0.531513395962 0.412761225951 0.465531686151 0.554544545203 0.387619689926 0.490756988071 0.39777425754 0.232910637754 0.653637604098 0.984521331511 0.576620602662 0.352229390783 0.476175043258 0.905792904826 0.221350800519 0.44607372893 0.150182573835 1.0 0.506994688241 0.705183769154 0.425465089094 0.533806144313 0.764032597567 0.50021508657 0.336040615379 0.727528212585 0.588282850689 0.435546166652 0.548675703451 0.394110122493
487 0.601895664701 0.505128005559 0.472354385497 0.530663320504 0.4552766362 0.271871039652 0.736721205879 0.523579259747 0.127121685586 0.412737972699 0.483442856348 0.515377892392 0.422608526156 0.324356178712 0.518220952976 0.849142162059 0.468586345721 0.531020440143 0.170385371585 0.411277807849 0.634057605631 0.844503121467 0.835763755997 0.335405628556 0.251649073303 0.401124375251 0.45791190043 0.479145528896 0.368674058711 0.366429512908 0.541058970548 0.311884231514 0.597321258995 0.683775349789 0.372143430614 0.770432430935 0.42342641831 0.673009715951 0.74796471302 0.488250606186
10 0.136223395124 0.800624355232 0.623944672578 0.461616893879 0.263062938985 0.39634372198 0.443565962931 0.746714941646 0.39411109607 0.784877041211 0.700298672289 0.602727979853 0.362106465563 0.502234047722 0.598317626788 0.274591768557 0.334815171916 0.130049209919 0.32783977432 0.8103875967 0.624500385474 0.533079962469 0.753747457387 0.823520012731 0.349677824511 0.199217730687 0.375034933108 0.553176316621 0.295945214044 0.579077264817 0.554298545589 0.724319362801 0.667528918738 0.447936711267 0.305546290475 0.698213519966 0.62834285781 0.436190051651 0.211403756707 0.527099020259
2306 0.678667312438 0.587731674424 0.0871739515089 0.37267576347 0.291833515048 0.514047056275 0.245719922668 0.878588049173 0.689638109062 0.569076090102 0.383003780033 0.553436231468 0.541703088225 0.848946422294 0.408379500654 0.268310070221 0.51440707782 0.538448307071 0.178335002584 0.739868576858 0.369260391404 0.771609177814 0.787526674163 0.44654880508 0.787551205501 0.334966893882 0.585065779577 0.494587553396 0.34033788891 0.798051389128 0.829673186597 0.621671568977 0.657942159153 0.627533156142 0.33410570799 0.498810297106 0.68698668519 0.649893723131 0.271885543786 0.0840172338284
468 0.840911115424 0.613148536261 0.424939334472 0.295069436566 0.412269716516 0.421748419776 0.365906204313 0.699340798961 0.646559402646 0.565266771602 0.227769977554 0.79013859321 0.47210391101 0.739819892942 0.634258068733 0.568062550896 0.384431892883 0.95681726829 0.33053305287 0.779743196455 0.409729374661 0.775872356124 0.506645462044 0.123891297599 0.511197577171 0.612486647731 0.354333137258 0.627432823629 0.596742024921 0.556368347263 1.0 0.482298261418 0.450262468519 0.493715097507 0.255296338252 0.475569289039 0.659038426739 0.322717703025 0.630282610418 0.117054763252
1470 0.715989206734 0.567013609302 0.403157192657 0.255956893713 0.237805332148 0.495312253243 0.0325248039356 0.762791768827 0.68734365704 0.493747632718 0.32030253057 0.651169407179 0.121945431829 0.67570869641 0.469298101658 0.532622696045 0.246707912973 0.622575864416 0.528891293411 0.658063520757 0.499847628935 0.708328143738 0.644284009871 0.0 0.736546035362 0.439436861211 0.609121482948 0.462142734215 0.624185122501 0.42020434228 0.897208174933 0.356751210331 0.470510080117 0.330899050647 0.375736830051 0.687977988853 0.71496121135 0.985468923262 0.514175756078 0.287569909534
1679 0.266310686313 0.425985177931 0.737003731849 0.560615535308 0.657101298714 0.475248013219 0.342760134822 0.752733692579 0.358042014522 0.129583476296 0.329911815641 0.667716521844 0.569031969452 0.677077075647 0.457201602516 0.629469273539 0.318275759065 0.675229846913 0.360816044445 0.595902508765 0.487424840837 0.826144706079 0.611753087124 0.446199563823 0.421933853728 0.35492067485 0.892689771948 0.357721076466 0.808491296853 0.37602862311 0.659865080875 0.409707086806 0.544206362853 0.412453035693 0.533843843521 0.621993628303 0.601991676055 0.537721526907 0.547463223511 0.514914970319
137 0.256536220504 0.678567435884 0.526949339688 0.486382464189 0.372493768795 0.606710354756 0.257962718048 0.263048694154 0.539799414613 0.479694102591 0.257667226216 0.374863631825 0.458414348601 0.354524253865 0.620184254487 0.514673232094 0.0283242282379 0.556839962548 0.426226013522 0.579657055283 0.452695259524 0.71391214816 0.474864942035 0.245034643689 0.567581514574 0.487187766537 0.456582385024 0.636839185124 0.473012522746 0.353335640335 0.255796307754 0.284700046526 0.371262591015 0.452081404238 0.311079464671 0.649453314377 0.478450555416 0.933967247238 0.711544192691 0.50929533925
1380 0.0649970415266 0.74554977082 0.419702911256 0.680376318797 0.154947369339 0.781516832009 0.808917112056 0.543860620791 0.607137656883 0.625236179667 0.378703076241 0.292918470014 0.188216425175 0.296861415878 0.552472343133 0.457801390962 0.579766225968 0.354490026083 0.191808231855 0.590789580261 0.684952847631 0.423695157841 0.539529266895 0.542311996682 0.559541417878 0.428733144227 0.786235384465 0.362154871041 0.484848313986 0.436957636596 0.353390531505 0.590734957439 0.604837658361 0.342867342343 0.354819182354 0.632827533473 0.31253786928 0.944645767124 0.78523198842 0.31064710881
1897 0.591321850642 0.475141689863 0.146943284625 0.465424906408 0.360469156199 0.928389731515 0.235821885382 0.451350934908 0.559870750799 0.666035300032 0.310670853689 0.378869435408 0.665408861759 0.8894002052 0.526256935087 0.625150770409 0.322618331884 0.508133160064 0.135295062696 0.414686426851 0.426175254829 0.466544903936 0.807464513029 0.372070743039 0.929670359196 0.3679519262 0.425990363894 0.433329651615 0.394364842713 0.569633253119 0.655708653673 0.363459359749 0.487755964402 0.741387142927 0.102967404509 0.765870415851 0.366671239194 0.866623588935 0.604871088636 0.235633937227
2082 0.61143829002 0.369473104752 0.0 0.652089460971 0.413066475636 0.624353521129 0.337023074863 0.546149398231 0.276728034063 0.614347162237 0.267851070353 0.789047894352 0.58752463752 0.710506911916 0.291377130901 0.427305782127 0.185964503154 0.709613149942 0.0293392409162 0.417696482226 0.346131951689 0.4368624953 0.791835216736 0.186578309607 0.577565385384 0.324091404299 0.283345441283 0.526987421367 0.729956699624 0.667408253524 0.838586940043 0.393213204254 0.360510428502 0.733675153659 0.122683836696 0.66165915881 0.383114241184 0.778522459888 0.355888140817 0.158688200729
2555 0.247754303355 0.669915898841 0.46070844239 0.603211320139 0.292960569304 0.555738336102 0.611781053818 0.802266907426 0.402307477047 0.516587087592 0.672865260855 0.178816922104 0.467367998586 0.390121262178 0.453408513928 0.250082238405 0.407227807642 0.424799901778 0.4971201155 0.305915841361 0.518015605222 0.358267114099 0.898572544346 0.425213131732 0.448985741881 0.639269719275 0.560697365229 0.605426638343 0.31883304812 0.222789441297 0.406103259915 0.754440155231 0.467708393036 0.583196158391 0.14243613371 0.689789315031 0.515792438402 0.638638118057 0.429562040774 0.0444450849417
1950 0.538428888387 0.420820520513 0.428383367075 0.414990011317 0.313932440934 0.357377879348 0.720653505235 0.653820163632 0.0350882232159 0.392960179745 0.479673896514 0.539216960071 0.431936884365 0.22791430768 0.545171289773 0.762079688649 0.475473404682 0.476401423014 0.0971454106279 0.411651686246 0.492641552168 0.800265825893 0.850976778192 0.340306093168 0.20206874043 0.363717058928 0.468547365344 0.415467325609 0.355171470806 0.314878912951 0.518329300193 0.361763206968 0.52876533595 0.571873406831 0.363683686576 0.878518089543 0.396389357492 0.673466235629 0.667510859397 0.372644289591
1932 0.69020181921 0.399134223639 0.156057475992 0.37067664336 0.488092392898 0.441066368742 0.700563367609 0.796945440706 0.4335231726 0.509056765126 0.390103706066 0.58865909867 0.560576820634 0.696709945328 0.350606394708 0.4970924886 0.553719135775 0.505281968661 0.162348108816 0.526189616003 0.385600741521 0.490876988208 0.80008357178 0.487901122007 0.534559745305 0.252567984716 0.262690058326 0.549021540619 0.445517739121 0.654760554732 0.89660577239 0.47110037613 0.734998106361 0.968532021539 0.209168791658 0.551709100029 0.433594356529 0.57620766725 0.509133660761 0.0204858720272
406 0.212862014794 0.698185662189 0.482722101325 0.509786350091 0.312866771717 0.470633224961 0.509583565599 0.803315674007 0.343051291298 0.623614154351 0.578852141715 0.258735760697 0.442703843695 0.366319808633 0.405940964244 0.268884934948 0.486508532502 0.3164056977 0.487582236357 0.46807132489 0.5668740897 0.379541488886 0.789696529315 0.600962353684 0.350811319567 0.509845792635 0.432345309286 0.623302128632 0.312412388237 0.394681608531 0.44689022216 0.774381300197 0.532150005451 0.596032087439 0.179622322883 0.704968242495 0.556898192198 0.538593182965 0.426965009857 0.146100637488
1424 0.333870656604 0.378860792275 0.942562498133 0.0513680483884 0.35519970236 0.453400140174 0.610949215877 0.830853666647 0.48571740587 0.0318604279305 0.500558072789 0.636228016217 0.469333249392 0.466721634282 0.440209478954 0.943791329367 0.552461056842 0.734775259295 0.345332567229 0.580097789515 0.294644859695 0.431476288591 0.501441771679 0.393032066282 0.270298399225 0.278895499057 0.541692437891 0.21423874486 0.49714865314 0.366513170492 0.808624179245 0.640672303214 0.569286407041 0.594604159387 0.276681765759 0.622646955079 0.552325859684 0.378555175503 0.512016885431 0.267951151442
1659 0.470070159769 0.537190882602 0.361891420194 0.514211737948 0.303907983514 0.909330726492 0.458136236106 0.530530563226 0.253331050636 0.576393305758 0.522077585897 0.578355396728 0.747063473999 0.724240432348 0.308027905031 0.64075779218 0.387321882808 0.512369121519 0.13867758687 0.400510418582 0.441352570111 0.462367131536 0.711387869995 0.580064617785 0.302078407933 0.396606349141 0.472959552646 0.473790555623 0.374218875055 0.260198457035 0.749694225581 0.599060067157 0.622771883334 0.779135537069 0.000409371376692 1.0 0.512093069411 0.744367554061 0.834441644266 0.265746483731
306 0.308599158413 0.499591735076 0.496256373902 0.707650819432 0.290940783379 0.37180852244 0.478315456663 0.655074375799 0.663590618342 0.300560139043 0.6253495952 0.535661587504 0.325366293936 0.566763360131 0.389928935957 0.675639156885 0.250536024081 0.680616131115 0.460073629332 0.563918420454 0.541425917629 0.593559801336 0.490537292058 0.638431929586 0.150187436302 0.46918480917 0.638488664556 0.530728325169 0.70587100228 0.234666959158 0.659455627565 0.519199568811 0.615802223144 0.468126525867 0.276738893304 0.456664849 0.798180231506 0.607701659666 0.491567336541 0.337675172281
628 0.460422527816 0.473063430359 0.936738090369 0.373247830021 0.607139485195 0.586557363784 0.45458543217 0.700430039269 0.58801874011 0.0313031138553 0.379419368079 0.690316719324 0.352028993579 0.604549832382 0.536463168939 0.538401168443 0.531289465144 0.626011222851 0.62656622367 0.537156029946 0.339246873638 0.636939182689 0.564143321904 0.319709337361 0.45206406473 0.487849513436 0.575312159618 0.595245831739 0.698200793083 0.481594136427 0.584980731388 0.488944627046 0.530933468641 0.532167079921 0.392263854454 0.556320666497 0.624674134479 0.592689298442 0.727224535556 0.445114496899
2174 0.484620952599 0.505553110526 0.359036233866 0.523738340772 0.310190134707 0.852878858872 0.471049090058 0.507985040342 0.277810419338 0.546454678874 0.526122137232 0.587916023091 0.706650072157 0.74895099499 0.314660529988 0.632063767294 0.412856534739 0.519696425264 0.101634829713 0.406516901026 0.423067491289 0.456118562381 0.693111429656 0.548972689399 0.2949581729 0.411441056342 0.4543479828 0.433738065454 0.392843393474 0.27852451393 0.781372731061 0.620525326063 0.569131881581 0.773504307059 0.0 0.962380166671 0.507885274322 0.72270519028 0.817070156496 0.267047887405
1076 0.241706098231 0.468298405573 0.849116328449 0.584511937998 0.61993405938 0.50043970874 0.713491714245 0.541565216074 0.471303992711 0.396260729736 0.653636356031 0.45931143471 0.604254542505 0.29931323824 0.281087842966 0.190900119447 0.619557841153 0.263921021578 0.345448788087 0.559840214556 0.819867092755 0.19751243427 0.773933317433 0.757162217509 0.202459128455 0.58982486704 0.390089827051 0.635370564921 0.36171116522 0.26069987138 0.792033050951 0.792562801857 0.460616517255 0.647847479786 0.48346785205 0.323761931668 0.475453993567 0.541983354791 0.35958175503 0.411230126909
1616 0.278153723812 0.369527728759 0.617778159491 0.596171166186 0.713411010856 0.564116164549 0.358823366423 0.724897472475 0.514423366781 0.209837251674 0.277764982458 0.449839316686 0.546733500731 0.751873233439 0.485787619576 0.396704615731 0.572839962698 0.26359471656 0.479297305074 0.363251404937 0.324562215613 0.617012323361 0.472675012751 0.648572643486 0.428574664871 0.488924891258 0.93393634982 0.760387903244 0.546839617573 0.374239413133 0.512513760162 0.737748291473 0.36031095018 0.724444658814 0.525256010817 0.645060384584 0.496879396193 0.470311720499 0.678717650941 0.345649200875
2781 0.212852281033 0.797710886168 0.614108354608 0.358667742087 0.643610300347 0.656766150388 0.628901363148 0.59933897646 0.698499676365 0.616413502908 0.489337315631 0.363163026689 0.72654653404 0.653294770265 0.167886267849 0.353402038343 0.418084619087 0.316150537383 0.192133588108 0.798097694374 0.583008614889 0.474000128109 0.726566554859 0.559520362298 0.830985956304 0.535907356686 0.38236487841 0.556945154388 0.0266252050605 0.499233138814 0.735591641239 0.690907986186 0.256095327038 0.852592227831 0.242321724914 0.363278573183 0.414975512658 0.573390018675 0.714248546266 0.216085769537
1530 0.505880076525 0.465842872487 0.420241202924 0.582599630889 0.694452069969 0.461539385191 0.612407911637 0.328811163553 0.360582178808 0.356391380392 0.593129257827 0.330494820783 0.474857925654 0.519013269392 0.427511622577 0.624872402546 0.381367127617 0.290542948134 0.343351529874 0.642288372356 0.877304095723 0.654730894283 0.683796504301 0.692048451599 0.32705691947 0.425846175604 0.360813496211 0.754697080226 0.302483028965 0.479621410924 0.579751055395 0.482709243094 0.601240867545 0.64299807684 0.330977526587 0.617134774598 0.625032250909 0.736564032832 0.790535738149 0.560779923797
248 0.687774868137 0.426568777427 0.183788975879 0.376577852239 0.450353680656 0.420207807734 0.706177677843 0.745631855238 0.466778791846 0.511470878557 0.443737503033 0.573533048249 0.540166118628 0.694937454094 0.364276640311 0.485057172139 0.563733686897 0.501535915015 0.144482104008 0.531992702429 0.411746293636 0.486596017001 0.796032823318 0.472246244108 0.515335374134 0.298405612365 0.273473978661 0.523694103172 0.409328736094 0.620509015233 0.896608779391 0.497782781165 0.716099361557 0.941696957324 0.17375278785 0.574227268479 0.42526194743 0.588675118635 0.526882699588 0.0328790063412
2859 0.568828308845 0.403466501757 0.0165787514391 0.644681302901 0.397231004992 0.626062759972 0.321851864321 0.590939376274 0.294777931854 0.626267155852 0.252834040275 0.77079643945 0.591885841719 0.682851818933 0.283897125958 0.410824767137 0.184083202168 0.718094678887 0.0382403913473 0.435220424972 0.311827521466 0.465002259698 0.782227631672 0.189122455528 0.586604106239 0.331628122648 0.328866942796 0.525751263129 0.68640384469 0.647853094096 0.797679697756 0.400997961818 0.340469881021 0.713699023501 0.11855451428 0.674641151696 0.380301845161 0.788038011373 0.360715590819 0.149010964961
1185 0.411864038826 0.110310776637 0.518778738571 0.66551676909 0.655723718712 0.530615553082 0.471327660429 0.738668954024 0.498377844034 0.0540539799274 0.300756203392 0.572195068434 0.398216473602 0.703147729514 0.533726379889 0.368790927313 0.533977869041 0.787980388078 0.394388334906 0.469565552788 0.429504824349 0.612183330902 0.518730617567 0.320944236182 0.45070850685 0.575511735291 0.63264426098 0.655871847957 0.691213466188 0.542383720606 0.549077890599 0.601052509053 0.283614063952 0.540200437128 0.323230467887 0.536065188016 0.405229608961 0.744022150165 0.571699813501 0.530793414135
2239 0.703679833594 0.630690484243 0.120777828588 0.331027312546 0.303947556611 0.540531905313 0.239742428174 0.854484642824 0.672219270894 0.56518887928 0.387659307881 0.543467579198 0.521910745591 0.882061028342 0.438922568763 0.289198771322 0.507097876973 0.541298597909 0.179351468966 0.740776016241 0.378447016475 0.789797077932 0.790250416868 0.420358319572 0.826782831251 0.347824182453 0.581309626988 0.497480163674 0.336033850914 0.837577074529 0.839730602776 0.583177878263 0.661326547699 0.631496974486 0.309480405764 0.537872756743 0.657617051829 0.635296172436 0.297715121319 0.110494008243
2383 0.736989648588 0.637123380915 0.436806741227 0.527644925832 0.5947696207 0.231713323997 0.529243185379 0.846296642124 0.656903206431 0.477413283767 0.518643272885 0.38046924212 0.0818682988368 0.604133717059 0.140490978072 0.0 0.306656613501 0.494515404028 0.771604261141 0.772233486287 0.507896568427 0.419223802627 0.603426812754 0.360512194422 0.634513040988 0.729011046636 0.489869316437 0.892499505537 0.377481360916 0.636290288098 0.690143326199 0.322187105211 0.500708850432 0.526353292731 0.59847251704 0.47618645035 0.42123102158 0.821186032257 0.501240271482 0.279295932796
1155 0.817388154662 0.616532111416 0.427995877502 0.291636345525 0.400436114221 0.427102451223 0.362600006018 0.708747981935 0.641965379597 0.546528731433 0.212813233116 0.787436007115 0.474908169245 0.763188940935 0.656982065741 0.575144264438 0.389430568789 0.922485297512 0.280759761231 0.797014115581 0.396020387414 0.802962636101 0.483278116265 0.144785772609 0.505982393553 0.614652108861 0.348634884917 0.616885343594 0.579808423322 0.558524853871 0.973182061134 0.48956007552 0.404367001903 0.458999788559 0.246146964837 0.495377865702 0.656607788084 0.32773225072 0.636291496616 0.155786910781
582 0.695902263601 0.601862876761 0.436491349417 0.257737079043 0.213857999888 0.525755916621 0.0 0.758218711028 0.687905610089 0.496359768177 0.343297934589 0.643849594994 0.152953899387 0.739013955296 0.519940258141 0.518665705635 0.240463804685 0.616250890434 0.518159198337 0.642379913422 0.470683035672 0.719612992611 0.63911650577 0.0165193396829 0.745859239565 0.415439071414 0.618109783936 0.456395080026 0.632573297861 0.445842603169 0.894355282687 0.38199620354 0.476218812548 0.310134643632 0.347861406014 0.697330988684 0.735999019339 0.938379293232 0.479403806377 0.313983909785
2787 0.464928079305 0.530088063522 0.0842279966818 0.645457086016 0.370520411149 0.468906757993 0.458824766723 0.511071457904 0.58311103578 0.738312517707 0.351741861315 0.405848946591 0.363359225934 0.617725769713 0.328740908646 0.519204019959 0.510108514999 0.143112517595 0.316489595592 0.644629097973 0.5279483801 0.144228636364 0.690102951241 0.674578562652 0.836060737212 0.202110331199 0.0 0.80026765234 0.296026971971 0.657698927775 0.769681009811 0.348641149165 0.648505429744 0.703480308222 0.36560757834 0.53820223822 0.275782631791 0.897989847081 0.48560161593 0.225124272082
1145 0.567103663375 0.447520905004 0.126625215719 0.508967333409 0.310520741444 0.929464662113 0.254963989938 0.416650039302 0.583556673647 0.649924480103 0.283131634804 0.40386108382 0.650565815472 0.833671045976 0.528509384683 0.587718772433 0.320403161941 0.546136137335 0.093335293136 0.418824545862 0.421431913279 0.473162082623 0.871418583416 0.395063926476 0.906591367262 0.341333430953 0.454466812972 0.448294230063 0.370145074899 0.534149158551 0.640981364863 0.345174429976 0.49915291952 0.732248066885 0.111862137656 0.779518416911 0.370569075318 0.910619573126 0.575156016987 0.188572610777
1833 0.453668182577 0.480523145154 0.451566963024 0.602983046908 0.357506782735 0.546949120909 0.645032822144 0.705705351739 0.66114088982 0.429374565798 0.500232284265 0.409992566779 0.250190380834 0.820135294639 0.520884677264 0.591367087386 0.740876714588 0.189231694274 0.613439170966 0.746559045916 0.385957835372 0.361508980076 0.408630872905 1.0 0.357667871461 0.48868835194 0.255107310886 0.681451654333 0.380392381665 0.500408063104 0.452862877996 0.321239526197 0.874536845051 0.379589938996 0.53272716653 0.730624586974 0.406718988051 0.430937631461 0.804069036556 0.53754688827
2826 0.0206532710451 0.6345693548 0.456538836279 0.390737018171 0.263406944486 0.452125780976 0.398924688575 0.508035454985 0.536695022165 0.298336916654 0.174216151335 0.392272901533 0.343578384844 0.427554779467 0.380257844401 0.659703181493 0.311174720454 0.318469194195 0.231176338428 0.735009443387 0.399769321781 0.840928231754 0.402079838519 0.494210290845 0.798878516884 0.479663563496 0.326528852196 0.531758028928 0.187534516098 0.54891087121 0.25962346834 0.207721198769 0.303414956491 0.431773810812 0.171041663144 0.415006225626 0.403440777991 0.920013907395 0.552463631515 0.395973562551
208 0.651616010798 0.783699686832 0.536374901476 0.405198473198 0.338930485649 0.632713860418 0.484200590927 0.969343163479 0.914597356091 0.55725318762 0.493102584507 0.575518199065 0.632817721096 0.745069061997 0.550984504848 0.396970995063 0.492140547702 0.43009132638 0.579808148574 0.628728209176 0.314911313428 0.896908839867 0.765161714299 0.57709036055 0.805707673127 0.412252361169 0.65420683494 0.746672968398 0.0940363387359 0.398976031173 0.418998783919 0.568188994225 0.601951122754 0.721523183079 0.34570516141 0.61842404994 0.799832762254 0.716358556616 0.747198376028 0.30009005772
2571 0.0999462578408 0.686716035825 0.609443543143 0.552319186849 0.406234040279 0.448242665974 0.46014402833 0.877476086773 0.361883543762 0.665070696881 0.679105439832 0.437004374876 0.355100814067 0.579191661689 0.516875819303 0.309186870511 0.359434719387 0.228708297423 0.464192633276 0.861946559046 0.584672297508 0.322487969036 0.656495421117 0.722188526365 0.351509908664 0.370348607641 0.329740887684 0.615512726329 0.301164251675 0.603051934894 0.524528483442 0.643521525848 0.570749341722 0.399792933607 0.285781696949 0.735450797824 0.539304664561 0.426310196812 0.276814699006 0.427576323735
2153 0.355541253154 0.738837810568 0.59595120791 0.365864574485 0.0526356461367 0.277581119019 0.655141202405 0.649435036473 0.755423301941 0.575955847122 0.342701229778 0.592547548578 0.155710335409 0.24672037679 0.399305485194 0.194855750182 0.518384671166 0.497144455862 0.352938818419 0.888966087378 0.190341493038 0.606906253966 0.670201298638 0.693419655598 0.51533906201 0.383441496881 0.318484280019 0.551234103326 0.159277911483 0.556328244739 0.358175171343 0.402634720237 0.387689490358 0.386101425516 0.273800283127 0.609307769516 0.714154792689 0.800779179053 0.377658379268 0.275302323548
2183 0.295902499571 0.872325581724 0.605346322037 0.333577055358 0.486737248037 0.703532157209 0.625069009478 0.516381090201 0.701124588631 0.648140636232 0.51389374865 0.349198185949 0.695969979757 0.664083760356 0.233139949557 0.290399671339 0.496921702924 0.324810378361 0.163003171835 0.705494392467 0.555099085278 0.440379558096 0.743221744933 0.604562701686 0.789245257721 0.558994032075 0.350079280462 0.485825920665 0.0 0.49693693732 0.699798555988 0.715817776732 0.312775546992 0.83089680724 0.165332495121 0.458167359682 0.428783863455 0.589686239663 0.705687864321 0.240458998823
2939 0.249206108554 0.830258303627 0.614639752466 0.33078140002 0.57566609779 0.687848298527 0.651683354571 0.538475484874 0.696632661303 0.619429910487 0.503282737687 0.351023331439 0.700042737319 0.661036058565 0.199678001313 0.302518907523 0.483925094982 0.311083954048 0.166845296675 0.756165457905 0.580442002834 0.423682702812 0.739786427087 0.591123272055 0.778919994953 0.540687265612 0.373195863393 0.533043633496 0.0083449470312 0.480151242289 0.741540241066 0.737398410894 0.296485753876 0.847957911456 0.219554989233 0.428725853094 0.418272693841 0.571880668819 0.750313393986 0.220646544575
1987 0.0627756792838 0.636325813806 0.435213983864 0.387678502749 0.24889358919 0.422978142469 0.377911246586 0.520929059024 0.50734093828 0.298058259617 0.169135671235 0.338161516624 0.248386454328 0.422448792951 0.380771581004 0.61341809128 0.305867974556 0.337617024777 0.266030476589 0.77034429469 0.387586524997 0.864493145583 0.391929195368 0.473381359713 0.787040434664 0.484805164817 0.319984305201 0.54332558032 0.169759215074 0.570754264744 0.252813112128 0.181065418793 0.360713278289 0.437317547979 0.139293862555 0.468308015159 0.400423493839 0.943806370486 0.559674649738 0.415193203976
2186 0.716385636272 0.640799887922 0.526992426001 0.48177618709 0.578799539207 0.210163288692 0.442080452911 0.84113754369 0.680129556341 0.402484710204 0.600922345697 0.350920770244 0.0158112947592 0.614675209987 0.140377385201 0.036696896286 0.307911657262 0.510902700167 0.839006143857 0.710714804582 0.530036111667 0.416317629322 0.577581632381 0.286590766205 0.623511843219 0.779420516219 0.576964261085 0.799884282746 0.395990917039 0.587266412755 0.681063185361 0.365919446909 0.537433371431 0.525103715473 0.559232041841 0.464609274422 0.448574830865 0.842107732779 0.419904775533 0.321264735746
1219 0.362750135535 0.256643963269 0.578920050187 0.51379669571 0.468859244727 0.639939492736 0.193998491847 0.588201837507 0.817409623958 0.436287235067 0.0451512382178 0.776285189153 0.59879040069 0.426108950195 0.192615835474 0.554261996208 0.246591058838 0.970321252843 0.503686283235 0.844924549334 0.130169250362 0.795137023106 0.776522088016 0.587675859766 0.451912071551 0.308955703945 0.769742678366 0.810853340902 0.506168964503 0.525829611013 0.34253425538 0.342000586434 0.480068463208 0.561358561932 0.583668541372 0.587050743905 0.611509342548 0.614002022242 0.300615198307 0.296488481674
551 0.431434502702 0.462104665824 0.650229334081 0.208260931521 0.463563616557 0.00945693556029 0.902706244118 0.724518770934 0.676808743716 0.349170707331 0.496124740587 0.469422834412 0.315712563077 0.181010451468 0.433755520171 0.0780731212728 0.522094663484 0.356902041553 0.548599429896 0.788199430954 0.282390699248 0.564887139649 0.64349900567 0.411870876605 0.0407673627182 0.512431768106 0.485674380972 0.555040828541 0.248040080806 0.403166877758 0.447178894261 0.630521670238 0.102285740615 0.456102990292 0.43078447135 0.538220320952 0.731540221699 0.669270881702 0.68191072174 0.226314538618
2898 0.288958788436 0.664520009227 0.557837917334 0.424120594673 0.0453962622431 0.270418395461 0.684080343866 0.638893169005 0.702862775388 0.533200642118 0.274915563193 0.597348941043 0.161661779519 0.16530781388 0.42427736525 0.155247395053 0.588844679356 0.542248995044 0.306255634303 0.854547418143 0.179635565886 0.568707867901 0.691968260685 0.715913922954 0.473125261609 0.370309184421 0.284742436427 0.525222444267 0.177453544425 0.549754883279 0.358630230835 0.432673248063 0.404789839754 0.409927521154 0.323180000953 0.630842894872 0.670430732052 0.752185412811 0.311378212141 0.227005054419
1477 0.661188132363 0.559273415798 0.576901887295 0.475610388784 0.583165355405 0.216251603717 0.363635334402 0.865702492543 0.716442643818 0.373103671663 0.662889094598 0.34287809887 0.0266139694132 0.687686873219 0.20907310215 0.0801798864598 0.29413753934 0.390260800861 0.89402770842 0.679641755583 0.557098369988 0.430339915519 0.547716871278 0.338893149784 0.589241464477 0.731163366693 0.691930312194 0.725155466966 0.399856720016 0.546540838578 0.633645284634 0.445670372898 0.540857936596 0.444897176281 0.563457174579 0.44798772065 0.459329122717 0.860202334996 0.336616480266 0.413601622456
569 0.461297681418 0.582840986119 0.634428721451 0.367584924559 0.348864890904 0.571168471487 0.826147955725 0.400288002522 0.646875074652 0.425905614802 0.44046657641 0.227312835065 0.261474304338 0.581793239841 0.680113341711 0.481604767342 0.556579785702 0.45322205942 0.32828756645 0.609176220408 0.64839674229 0.409656561487 0.478059898568 0.379125677287 0.495443233972 0.604218722525 0.669908876021 0.423515197361 0.421038288083 0.547832617906 0.519809747044 0.426451859334 0.586706483664 0.331074877608 0.376297346054 0.566578037793 0.588075335789 0.728212101454 0.895333800074 0.450858943523
2659 0.652418013711 0.796545951385 0.92317049771 0.274571192195 0.480413030953 0.817222643499 0.453684175088 0.622891372066 0.870812226915 0.310230031933 0.394716418807 0.472155252008 0.398730411053 0.679253678877 0.51942195499 0.61979920671 0.710407884164 0.654855745865 0.566846415379 0.56468957679 0.418096833051 0.72334534947 0.52484583199 0.352843560787 0.756816709661 0.660215651268 0.630704136245 0.696721900999 0.349580293646 0.627755621059 0.606420648876 0.321684301217 0.47152741956 0.634936116204 0.458968332895 0.824364298017 0.324794674076 0.664831789932 0.751405246807 0.43591283038
641 0.409954451898 0.544861734751 0.489582591291 0.507565528252 0.556164039522 0.565343015888 0.479130014304 0.441169070593 0.888849611581 0.635434588415 0.602730914919 0.384460006681 0.53992095412 0.941948197072 0.813532164621 0.103405181677 0.404729102016 0.203903112325 0.402276747966 0.68191742533 0.480940391227 0.46419594488 0.614056593732 0.564185716783 0.468188512635 0.382936504212 0.551879244846 0.483463413569 0.559713515212 0.75272066414 0.441371122316 0.642681812456 0.204192753374 0.422140063702 0.151124900283 0.587453260833 0.736281835004 0.640344934668 0.678726816236 0.481883303074
2690 0.593288070362 0.549774216054 0.799385818973 0.718449872582 0.496440446696 0.24276072875 0.6301807013 0.834161387922 0.759074290421 0.542669496023 0.456320223544 0.64346227856 0.237949105059 0.359531355833 0.447633543689 0.291429807876 0.325927681455 0.438462385917 0.869171050068 0.489284166867 0.357657872128 0.362661959852 0.607423678019 0.331397995466 0.324633984884 0.269325356076 0.615006374366 0.903185371079 0.727026883949 0.204089979441 0.584644949604 0.640146287631 0.250104234447 0.546792405846 0.512425625316 0.517539311156 0.972225984018 0.9041403174 0.737934331542 0.476478130043
1308 0.464709807089 0.527571113806 0.74540211594 0.724484932583 0.468398077932 0.29821101582 0.562412127434 0.831316155905 0.65858451535 0.574210675143 0.450224484041 0.612637708743 0.290482411111 0.392127246694 0.473561544646 0.444221015897 0.317301721676 0.464539770338 0.823443735898 0.497313038302 0.31319748337 0.315610420944 0.568475636475 0.443920854301 0.278990723148 0.187210231514 0.57120906243 0.829247696572 0.807898943443 0.259227232323 0.578346284737 0.659152142071 0.378094583068 0.504399880426 0.463536487081 0.55938087542 0.905160729192 0.757633018788 0.642857396275 0.447631081369
640 0.547412559855 0.429308468561 0.502657563773 0.73756429696 0.245549818322 0.740762396745 0.40971236343 0.402966605861 0.926236837046 0.247786171315 0.481988865119 0.548711513357 0.289818650905 0.718596868275 0.422350852988 0.19373613826 0.407468850912 0.556743001628 0.768791032722 0.399186673061 0.276913055913 0.283306525367 0.617985312603 0.534499557823 0.530633737797 0.556182468181 0.687890086371 0.781257144031 0.469002312089 0.217120378483 0.626011260718 0.674723363933 0.518513554973 0.275841655903 0.78404455846 0.559248660116 0.522268012352 0.722506420113 0.530052413666 0.437616526068
1544 0.784639948181 0.467247530245 0.698897335083 0.885210730779 0.551064718839 0.355116296371 0.848539352757 0.506457926377 0.785632828524 0.350639142153 0.319162762864 0.575679683638 0.300604073242 0.706218866372 0.510349651986 0.495059116621 0.62541547083 0.947152696039 0.517846582874 0.312573396778 0.170080550013 0.697585681699 0.662688026599 0.333623226402 0.543533401489 0.573944818756 0.666199465495 0.572926593392 0.538954206477 0.48781215234 0.441913635422 0.365737850354 0.300507630186 0.933391026263 0.29162074688 0.699773566615 0.340189010758 0.776392686431 0.736222195153 0.480585074746
2700 0.535557428895 0.20995996598 0.295651959106 0.954850321934 0.514055771892 0.387386924114 0.615530283281 0.646114770709 0.831980304342 0.326041350401 0.309248358631 0.580759421269 0.423598567029 0.640626973761 0.339533087634 0.217480741593 0.514598293677 0.834262567171 0.476925653766 0.287081781399 0.374010345802 0.624903176981 0.716646764222 0.421194085529 0.484796862566 0.569569154272 0.676692070868 0.509704002712 0.60747455402 0.492402696271 0.415778536377 0.617197876413 0.200325964436 0.742697853004 0.229986017841 0.450528227145 0.432202751688 0.944543775219 0.506691848563 0.478483483678
1405 0.788688307865 0.532575012489 0.502474303323 0.536617447269 0.409756045881 0.304804689182 0.539445415551 0.715303305615 0.957585626743 0.637545086352 0.448038698952 0.475720239687 0.377223127549 0.666714775238 0.558783882713 0.420161786701 0.452004187526 0.242110518038 0.581885829477 0.364041332334 0.565977773112 0.636599931438 0.492015117934 0.329938095275 0.701088950781 0.570337281287 0.554164339164 0.504607819969 0.484105287921 0.625656745231 0.391147439025 0.501690520557 0.407322933489 0.284824815213 0.545012662846 0.190229641309 0.591989224402 0.976348956994 0.366045062507 0.724957566375
1724 0.613407164402 0.510755410395 0.668495345529 0.795928573998 0.471196238624 0.423016775234 0.666421067905 0.518367853162 0.961121437599 0.567658943533 0.628703937464 0.335396802112 0.608635117727 0.625222990372 0.541239206893 0.487024460991 0.343111562565 0.945867588606 0.508205223661 0.242199145531 0.634041624579 0.312779274358 0.811327462706 0.581930172618 0.443204732704 0.50279372958 0.657641718146 0.636576862714 0.471980681322 0.137703304528 0.625947111362 0.666941678491 0.523396278577 0.471810759713 0.477558097176 0.492646903414 0.666293859777 0.570382072104 0.496785050752 0.309269496813
2655 0.695410856152 0.387979605151 0.637797496628 0.541958349128 0.228041371647 0.453901321998 0.678009595334 0.297006387985 0.990493438004 0.386577123409 0.509404067829 0.612858116695 0.297863376176 0.478740107973 0.252802076409 0.199258757842 0.503906140331 0.659188968429 0.598341024937 0.589000672415 0.338970511653 0.45733559659 0.952557167033 0.613601887142 0.689140759118 0.372672700297 0.492287066044 0.649088710568 0.328513374626 0.17775457202 0.529707291 0.623090206723 0.776093450256 0.753974053885 0.478188293413 0.396807481836 0.583893808409 0.885793831021 0.386057633745 0.34024158527
1966 0.482071002182 0.386370602661 0.487540300065 0.760585306398 0.399072244583 0.698961744426 0.530117628201 0.316196851901 0.89254325844 0.189314819096 0.559125941871 0.475770041037 0.335016090056 0.806631837967 0.510851401402 0.229406114444 0.437047364117 0.510718084172 0.783551081709 0.378231226046 0.332263980527 0.175271608585 0.680281682328 0.619669750164 0.694771092215 0.407999346701 0.544582216489 0.743908147985 0.480202208341 0.283600271847 0.602158726054 0.804125245642 0.532645329791 0.370476662126 0.648727080455 0.555528783718 0.522565129325 0.769882148842 0.595306658972 0.413889846242
2286 0.648667861068 0.479765484703 0.628900460277 0.559979483079 0.593169247279 0.206683729471 0.381721255038 0.771814806426 0.804031103077 0.462246771103 0.732163939541 0.336248355877 0.000415871647602 0.701142602378 0.309462942609 0.0993708944761 0.234214890707 0.317821987555 1.0 0.629233227864 0.620415022409 0.476037711454 0.58871405905 0.342771325565 0.600432851284 0.698656419133 0.806238353573 0.705321709379 0.408649299529 0.502894685194 0.572748501699 0.570388292347 0.503489746814 0.429433657711 0.530873467355 0.391040499215 0.485968957405 0.859435929369 0.410587513201 0.586401064376
1345 0.392985556868 0.419005758163 0.413200324928 0.590642111846 0.497193893528 0.308181401717 0.4552066292 0.855580273721 0.564102177625 0.644037027377 0.597730405567 0.536932261536 0.227295345143 0.133488709728 0.252904538321 0.639483206552 0.158205069901 0.753864553099 0.899273806087 0.417031523812 0.634734044986 0.326829139547 0.868846189098 0.238829823312 0.566337646656 0.315846945295 0.80044628794 0.591661615007 0.689001929926 0.432843276945 0.512171212626 0.314860435197 0.620862791505 0.805754673436 0.498277207442 0.588976437495 0.778307250471 0.813900616872 0.444894102398 0.171313623874
1303 0.577897814387 0.615377648592 0.59726792563 0.650627474689 0.662949703841 0.46228097767 0.551349755379 0.765855464296 0.682153554239 0.596505432304 1.0 0.621943164826 0.702205330421 0.680275962195 0.417769464124 0.576698095139 0.0925621331394 0.400008825545 0.841843610852 0.441214307663 0.556819528184 0.159355268418 0.635141827702 0.260974523323 0.70616188775 0.432509638351 0.476845068828 0.615677761481 0.64087063108 0.446489555151 0.54481471486 0.525558178996 0.26343725311 0.531448068231 0.641045603152 0.348828121514 0.812438927577 0.773714176973 0.449663899733 0.485540569818
1716 0.431968089782 0.312852915663 0.75760214903 0.566677918923 0.617499846537 0.546771096949 0.39742845285 0.703764269652 0.595596858978 0.215232666284 0.377164685115 0.716846292573 0.405358630275 0.668325221561 0.460530330296 0.765722447941 0.399861444383 0.655111206371 0.611261117504 0.45702416967 0.254392447245 0.582000348741 0.575166133249 0.358511312678 0.422300007139 0.362574098444 0.830539946523 0.67531998839 0.782480999113 0.506478682321 0.653827774516 0.627515428027 0.39545987339 0.250443493365 0.506488459467 0.525578377373 0.696534997344 0.554798491041 0.610473745271 0.520606657334
95 0.705542816455 0.444862725342 0.651184701257 0.893119360614 0.584551348586 0.330793054977 0.799742463927 0.58914551441 0.763103800918 0.317638030542 0.268460078357 0.490100749116 0.332788725096 0.620557697419 0.486916983875 0.443219534874 0.606795447343 0.944524544771 0.50671859108 0.302486137057 0.265737892011 0.657925609081 0.642751508399 0.350939853547 0.484170187052 0.601253846111 0.623329753067 0.54591669642 0.628481016029 0.455246777922 0.415601123315 0.452956081283 0.226695593833 0.83654991046 0.288866072028 0.61703567183 0.356806255217 0.780880330258 0.655350581435 0.497096389606
